6152 50
， -0.08211293 -0.08309522 0.13124642 0.21004578 0.108319566 -0.12852025 0.40979993 0.5947693 -0.29903048 -0.06578821 -0.09343041 -0.62959 -0.03614789 0.2419713 -0.5050352 0.34295905 0.055159584 0.20379153 -0.5070645 -0.36093763 0.12985007 -0.016249683 0.46289262 -0.063607365 0.45221895 0.1241887 -0.045518864 0.49368736 -0.24253222 -0.00023757864 -0.114754036 0.08432204 0.22854893 -0.08972083 -0.021039652 0.2856748 0.5358084 -0.34459242 0.42391708 0.10002749 0.42326936 -0.2949433 -0.37500468 0.13295671 0.42669666 -0.08856539 -0.19267952 -0.16179079 0.35652307 0.29109102
的 -0.05181443 -0.08894237 0.09315782 0.19024757 0.13330068 -0.09640754 0.40817073 0.49156106 -0.3116676 -0.043027807 -0.09351617 -0.5899916 -0.04233501 0.16631897 -0.49237394 0.36565623 0.10428017 0.24896039 -0.4888289 -0.3540341 0.10393745 0.03313363 0.43187356 -0.09867085 0.43412843 0.17933656 -0.01398852 0.46738848 -0.28184304 0.009029536 -0.08262222 0.123502955 0.18554369 -0.057279814 -0.033906944 0.2718463 0.47112468 -0.38865295 0.39937487 0.09344822 0.45735195 -0.29620337 -0.3238667 0.13085385 0.46729505 -0.053602327 -0.2464495 -0.2242572 0.35186383 0.26248813
我 -0.08131379 -0.07957296 0.11201482 0.18991159 0.12377866 -0.106599875 0.38528976 0.5356315 -0.28297758 -0.072318256 -0.09110152 -0.6016043 -0.043930124 0.21996492 -0.45597208 0.34953195 0.068114795 0.21370608 -0.46013257 -0.32469484 0.09514023 -0.018770028 0.44591942 -0.0795463 0.41420034 0.14205316 -0.053084385 0.45274708 -0.23435439 0.030102842 -0.05100546 0.079982184 0.17913839 -0.08203225 -0.011178957 0.28070045 0.47244915 -0.3164544 0.42260954 0.1008475 0.44088268 -0.30074942 -0.34933457 0.13566439 0.39709297 -0.057212826 -0.16501246 -0.17821929 0.32845977 0.24772927
了 -0.060761284 -0.1146595 0.10929428 0.19325468 0.11109791 -0.06660074 0.40671602 0.5636405 -0.28165105 -0.038167886 -0.1199313 -0.6019618 -0.040433712 0.20723759 -0.46927494 0.35821247 0.071363114 0.19504566 -0.4575677 -0.30799457 0.10031336 -0.026784003 0.4529218 -0.05184796 0.42398956 0.121800765 -0.063551396 0.45899293 -0.21581723 -0.00068708835 -0.102805614 0.10156004 0.20385572 -0.08780406 -0.012218938 0.2851366 0.4875785 -0.34712797 0.428264 0.08515741 0.44495973 -0.30755702 -0.34183618 0.120086536 0.39425808 -0.069924325 -0.16619252 -0.1855669 0.3170963 0.26864663
。 -0.06786783 -0.08224923 0.10271671 0.18101315 0.14347087 -0.07362696 0.3751808 0.5446274 -0.29888135 -0.051999785 -0.11952222 -0.6201262 -0.008083249 0.20819 -0.44356823 0.31554687 0.050877903 0.21521492 -0.47989604 -0.33118954 0.07481008 -0.023619495 0.4299056 -0.079328194 0.4311947 0.12629832 -0.041014843 0.46106476 -0.24221314 0.027050415 -0.0691978 0.06302566 0.17343287 -0.07886284 -0.038331844 0.287597 0.4682367 -0.3063743 0.42261165 0.08249508 0.41514117 -0.28860307 -0.34239095 0.16735859 0.41518608 -0.06566804 -0.1688519 -0.1881808 0.31940594 0.26050606
： -0.031521343 -0.09585539 0.068408966 0.15587488 0.08652984 -0.09046377 0.3702488 0.446535 -0.29420292 -0.05824489 -0.060817894 -0.5497529 -0.015091334 0.16739535 -0.45584175 0.35096678 0.115860075 0.22664642 -0.4524926 -0.3274331 0.076243065 0.026954891 0.42852125 -0.06251594 0.36580056 0.18470536 0.0016487218 0.43666855 -0.2668702 0.035896547 -0.072234154 0.08962957 0.13176633 -0.063529626 -0.022731436 0.23060599 0.379468 -0.3632495 0.4014776 0.061097898 0.40608215 -0.24722297 -0.27287948 0.117061 0.4364417 -0.039010625 -0.19937 -0.19520015 0.3310953 0.21104178
说 -0.080078594 -0.056659263 0.097082004 0.15358426 0.116340466 -0.08954337 0.35126266 0.5032547 -0.23877843 -0.07050567 -0.07441567 -0.53306156 -0.01677047 0.17563562 -0.40106922 0.2960825 0.053420857 0.16777034 -0.42362216 -0.2691363 0.08639204 -0.016636966 0.41597798 -0.038223032 0.35025692 0.1272028 -0.037880465 0.411461 -0.20052454 0.007922249 -0.061237834 0.06810154 0.15474513 -0.06274219 -0.006896986 0.2799603 0.44227514 -0.30130965 0.35190186 0.096071884 0.3899155 -0.25533625 -0.28641954 0.124334976 0.3731556 -0.067414224 -0.15455645 -0.15931907 0.28653812 0.2271171
是 -0.061792605 -0.08479217 0.081758745 0.1582823 0.09465568 -0.08378534 0.38842067 0.54783535 -0.26844427 -0.067151286 -0.09688249 -0.59328514 -0.01564943 0.20070392 -0.4481062 0.32119197 0.040301975 0.20926096 -0.45192885 -0.33211967 0.100550905 -0.014228228 0.4451126 -0.03451591 0.39353165 0.12671316 -0.06531868 0.44732007 -0.24519332 0.021898264 -0.0830992 0.09954666 0.18207408 -0.063699946 -0.013165074 0.27701887 0.4706929 -0.31122476 0.41047436 0.054019332 0.41331863 -0.29433954 -0.33145642 0.14337923 0.42452303 -0.07149952 -0.14905195 -0.18977803 0.3118321 0.23754387
你 -0.0871173 -0.08226 0.08137865 0.17065996 0.11506126 -0.064699486 0.37179247 0.5263764 -0.28138646 -0.03981689 -0.10358371 -0.5867434 -0.044011 0.21618466 -0.44879496 0.31717744 0.01832471 0.19096464 -0.4157973 -0.314813 0.085833155 -0.030577455 0.45614037 -0.033100013 0.3822707 0.13557975 -0.05174799 0.4298365 -0.23818733 0.019478938 -0.05020358 0.077677675 0.17544498 -0.081951946 0.010402361 0.2723239 0.4297141 -0.3007357 0.40884566 0.071705416 0.41172776 -0.29344553 -0.34424412 0.16600831 0.4040835 -0.09256058 -0.15521273 -0.16490653 0.31448618 0.2315238
就 -0.06763132 -0.076845236 0.1350497 0.17316987 0.110726915 -0.100451134 0.35702536 0.51947093 -0.29286304 -0.07717737 -0.09166773 -0.6300145 -0.028746458 0.2123905 -0.45876122 0.32508686 0.050605632 0.20961922 -0.46443456 -0.28885847 0.072604746 0.00076924573 0.4327904 -0.061986905 0.40692523 0.16196622 -0.06855629 0.44694144 -0.21438633 -0.0026395456 -0.09302119 0.068367876 0.17740823 -0.08098633 -0.030775577 0.27728143 0.4757188 -0.31512132 0.3996631 0.053778976 0.42809275 -0.30161852 -0.3318553 0.1414422 0.41747203 -0.09205504 -0.1540344 -0.16782875 0.33067727 0.26775292
在 -0.0797126 -0.08174367 0.10490651 0.15511696 0.09227129 -0.085800216 0.3824169 0.53210205 -0.29180634 -0.075264156 -0.10985375 -0.59975475 -0.05386163 0.18110014 -0.45272 0.30462885 0.030025415 0.18189369 -0.44651937 -0.31060457 0.06250677 -0.011684029 0.4456567 -0.044045005 0.37744018 0.13775219 -0.053863954 0.40372682 -0.22771174 0.030290926 -0.063849315 0.07152306 0.1615773 -0.08643202 -0.0137586575 0.29938224 0.45597258 -0.306055 0.41649488 0.06527756 0.4436757 -0.30787963 -0.34447175 0.140085 0.40304515 -0.07517628 -0.17117172 -0.1623832 0.31676733 0.2468747
！ -0.0504115 -0.11465196 0.11494184 0.18622708 0.08032151 -0.05815265 0.36189523 0.45837328 -0.27147594 -0.08069441 -0.059176758 -0.5558539 -0.012448743 0.16674416 -0.40324 0.3169416 0.032439075 0.1866173 -0.41478848 -0.31108823 0.07034594 0.00839054 0.43034616 -0.037068333 0.35590982 0.16247132 -0.070155755 0.39752328 -0.21886939 0.037001707 -0.054011703 0.061952952 0.16370125 -0.091073126 -0.014111961 0.23045897 0.37835902 -0.2869542 0.36196068 0.058486443 0.40853137 -0.23585764 -0.32637578 0.11981745 0.40169117 -0.049404487 -0.16892987 -0.18321781 0.28903466 0.20531517
事 0.02115348 -0.11461134 0.072774164 0.15371007 0.110886954 -0.071590625 0.3883763 0.42436773 -0.28478318 -0.048156172 -0.034207758 -0.49327594 -0.056176316 0.17983212 -0.444312 0.30619967 0.13657941 0.23924203 -0.41424242 -0.36380544 0.047240492 0.016245103 0.42903587 -0.056092344 0.37948498 0.1798208 -0.017432297 0.3891602 -0.26901194 0.019660383 -0.040627338 0.14370053 0.119586356 -0.04364943 -0.041798472 0.2199366 0.33223847 -0.39081126 0.34563264 0.007235565 0.44392267 -0.27397704 -0.25118068 0.06592244 0.41016284 0.012614675 -0.2505782 -0.23584482 0.27315485 0.2020886
他 -0.06929372 -0.100041054 0.09207625 0.19371775 0.107471414 -0.11179977 0.37699604 0.52712107 -0.29898185 -0.08252881 -0.09930253 -0.6221587 -0.01956827 0.21904306 -0.4664972 0.33942086 0.029021382 0.17950329 -0.46364996 -0.3248843 0.08662109 -0.004841452 0.43161073 -0.05398589 0.42487308 0.1239921 -0.04431542 0.45047623 -0.23903315 0.034645792 -0.056863006 0.068589486 0.16023496 -0.06361169 -0.01642019 0.278495 0.479207 -0.3351657 0.40248626 0.07956014 0.41803357 -0.2976987 -0.3381003 0.14212017 0.4130093 -0.074655615 -0.15499529 -0.18474263 0.32184377 0.26649353
糗 0.014057304 -0.08710062 0.10499965 0.18066488 0.07767599 -0.06642139 0.3437865 0.37941405 -0.26312396 -0.067790374 -0.05851279 -0.47553352 -0.02982264 0.12125372 -0.39708087 0.31202748 0.11691879 0.18772541 -0.40662652 -0.34731376 0.0568971 0.05831873 0.36020368 -0.10463105 0.3040815 0.19797301 -0.017497366 0.40841967 -0.272625 0.045324948 -0.080852196 0.12696666 0.1154001 -0.08763092 -0.02862564 0.19639488 0.33724836 -0.32311797 0.3063042 0.07262437 0.4214962 -0.22801639 -0.259611 0.10737415 0.41087982 -0.056333665 -0.24801226 -0.17530781 0.31806058 0.20801292
… -0.15257436 -0.11782681 0.14138457 0.12558028 0.06251251 0.017512698 0.28532 0.54392934 -0.27732813 0.007508013 -0.045762263 -0.613663 -0.069150925 0.27640766 -0.38854444 0.34277403 -0.0558572 0.2154947 -0.40482518 -0.3091948 0.097526014 -0.0028012558 0.46479347 -0.06418277 0.3181806 0.13150325 -0.011853823 0.3615266 -0.17720623 -0.020846318 -0.11816029 0.053251095 0.112534225 -0.063253045 0.0011718565 0.24266376 0.44426575 -0.24738003 0.46434513 0.043629877 0.41472292 -0.30254474 -0.41525915 0.18669613 0.35795036 -0.08771712 -0.14560948 -0.20334567 0.28815874 0.20936151
？ -0.09172042 -0.06719158 0.102006845 0.1824774 0.11222474 -0.05991391 0.37605307 0.487085 -0.27950692 -0.04400564 -0.08506255 -0.59034795 -0.0013094943 0.19194597 -0.39628458 0.3144374 0.007646962 0.16987082 -0.4253221 -0.30648747 0.08176346 0.011159338 0.449622 -0.06669348 0.37726128 0.13479504 -0.058237277 0.37998238 -0.21654072 0.0013237771 -0.0480017 0.05478485 0.1807619 -0.035063528 -0.012005487 0.28045624 0.41701266 -0.2819043 0.40287542 0.04206707 0.38989717 -0.25088045 -0.31044802 0.14089634 0.37095955 -0.07789992 -0.14866112 -0.15053795 0.28454208 0.23208216
都 -0.0740769 -0.08902836 0.102133095 0.17011225 0.122250594 -0.08416061 0.379956 0.5365898 -0.2702253 -0.0748459 -0.111626014 -0.6124126 -0.020679718 0.20175761 -0.4770868 0.32505026 0.01670147 0.20115007 -0.46490642 -0.29936358 0.0585575 -0.006729709 0.4557544 -0.046462175 0.37827596 0.12911405 -0.07737351 0.40042344 -0.24620788 0.016300706 -0.07765979 0.06444621 0.18745713 -0.06729598 0.004028285 0.29594076 0.4456233 -0.33305827 0.41213515 0.074876055 0.41525683 -0.29094726 -0.33237684 0.15102485 0.4367327 -0.05566685 -0.16275318 -0.15807125 0.33001238 0.23633865
“ -0.069261685 -0.097702436 0.07714922 0.17315522 0.09226192 -0.083424315 0.33670184 0.48750287 -0.25954357 -0.061103333 -0.080075026 -0.55108273 -0.032156643 0.19197409 -0.4106563 0.3213671 0.03556148 0.14629935 -0.37671816 -0.2989629 0.068042785 -0.0010908305 0.3920112 -0.053516705 0.3795183 0.12108437 -0.0708446 0.40445134 -0.2159026 0.0038039975 -0.031685427 0.08228781 0.16168389 -0.037021644 -0.03201256 0.26880234 0.40074033 -0.2794648 0.37731603 0.060868748 0.38605016 -0.24285279 -0.3015827 0.12264381 0.35910997 -0.060698573 -0.16476077 -0.1434959 0.2866123 0.24730377
她 -0.06310493 -0.064394146 0.102606595 0.193671 0.11806687 -0.10043084 0.36227965 0.52059525 -0.27023172 -0.062729225 -0.0997064 -0.5792334 -0.016775882 0.19952205 -0.4581135 0.31418377 0.019600699 0.16321272 -0.4281949 -0.30777106 0.084176674 -0.0018837741 0.41803274 -0.083751164 0.39574802 0.12752551 -0.05661764 0.407365 -0.20854303 0.01934626 -0.06065207 0.07755346 0.16639866 -0.051059354 -0.0043452517 0.27371714 0.42136934 -0.31014016 0.4221289 0.08002625 0.39322847 -0.26912895 -0.31659982 0.16321892 0.41577008 -0.092875384 -0.17909658 -0.1570974 0.33482262 0.25438392
” -0.049960304 -0.08871932 0.10725327 0.12998675 0.07473784 -0.07518292 0.3195606 0.47253206 -0.2588118 -0.070062034 -0.0631443 -0.54630065 -0.0066093733 0.17908058 -0.3768598 0.29784048 0.014263162 0.15479186 -0.37605375 -0.29031035 0.050452404 -0.017914407 0.40982106 -0.057882715 0.32587326 0.13650616 -0.055614207 0.35836866 -0.19316149 0.027182546 -0.06423405 0.06519504 0.16733524 -0.03836881 0.0024685918 0.26452765 0.38496757 -0.2752227 0.35439393 0.04633822 0.36444563 -0.2483518 -0.3128678 0.15657799 0.33808708 -0.085819595 -0.14669293 -0.15666233 0.2509623 0.22474213
不 -0.07548935 -0.081254676 0.08859352 0.1797586 0.109250754 -0.08242208 0.35831863 0.51496214 -0.2640779 -0.051151417 -0.11665911 -0.5992644 -0.031375896 0.20151052 -0.4593309 0.32951498 0.014094603 0.16931038 -0.4239609 -0.29966304 0.09025704 0.007557563 0.41701025 -0.040628776 0.39079842 0.16311267 -0.051390223 0.3897152 -0.23416749 0.03310356 -0.05673454 0.102701545 0.18083298 -0.04855735 -0.02992707 0.29140532 0.42283037 -0.30437067 0.41758657 0.07532637 0.428963 -0.28404343 -0.32908782 0.15874201 0.3882795 -0.07219647 -0.14212586 -0.18024231 0.32275933 0.23065014
着 -0.045930773 -0.06455047 0.10286396 0.17761916 0.11020044 -0.092601754 0.3598641 0.5291649 -0.2862788 -0.06774503 -0.089142084 -0.5818796 -0.04210795 0.19362324 -0.41633064 0.30618012 0.020147344 0.16992848 -0.43627527 -0.31022465 0.06837313 -0.031214284 0.42172393 -0.079793245 0.3639591 0.122216895 -0.08055935 0.4207045 -0.20959054 0.01711251 -0.073659636 0.06480932 0.16256359 -0.065804765 -0.0071837935 0.29211107 0.42943922 -0.30769822 0.38768578 0.053749382 0.38904676 -0.29058242 -0.31766176 0.15936646 0.38690916 -0.07804614 -0.13342008 -0.17158219 0.30332655 0.2606142
去 -0.057816654 -0.08797958 0.11532041 0.1742322 0.09234094 -0.07768697 0.35671914 0.5145249 -0.27186987 -0.066972055 -0.09085029 -0.56527865 -0.035902467 0.17792508 -0.43703747 0.32026094 0.050110966 0.1983259 -0.43301737 -0.27532464 0.06926438 0.0075992085 0.40398452 -0.051734813 0.3757308 0.1537835 -0.069370955 0.41035086 -0.22086553 0.0071724216 -0.07051868 0.10751289 0.1434244 -0.07095358 0.010368261 0.27658778 0.40191752 -0.31299093 0.41101933 0.07537779 0.40840742 -0.28721583 -0.32805878 0.14567053 0.40271723 -0.083536796 -0.17972463 -0.16828045 0.2958121 0.22954832
一个 -0.06896438 -0.09548911 0.12254956 0.14965862 0.11616259 -0.060388558 0.35948616 0.52850914 -0.25974748 -0.07185821 -0.10960781 -0.60292494 -0.05896272 0.18703617 -0.4448231 0.29867083 0.025321554 0.19310588 -0.41182342 -0.29782903 0.07029027 -0.003258275 0.42606774 -0.0473363 0.38195285 0.1594745 -0.07890863 0.4187189 -0.2320731 0.03981192 -0.086284235 0.08470243 0.1639996 -0.069586545 -0.015137293 0.26497588 0.40323773 -0.3291913 0.41086546 0.06364339 0.40856564 -0.27308774 -0.33037436 0.14828305 0.37673467 -0.08843685 -0.14323394 -0.18419233 0.29684874 0.25023237
也 -0.056425232 -0.09254568 0.10273329 0.1589808 0.109390445 -0.086776 0.35457566 0.5183846 -0.2535712 -0.043307338 -0.115693904 -0.597265 -0.01517736 0.20348898 -0.4443339 0.31537607 0.04855717 0.17660499 -0.44787693 -0.28234816 0.09429201 0.0030761412 0.42955756 -0.07167663 0.38254765 0.13890053 -0.049116913 0.39034274 -0.23788849 0.018769085 -0.08854469 0.09025241 0.16667686 -0.042418554 -0.02147088 0.28099158 0.44744736 -0.30935347 0.38999555 0.07166203 0.41040525 -0.2863935 -0.30909398 0.12919883 0.39613357 -0.075491376 -0.13744327 -0.15464585 0.3207308 0.2612515
给 -0.08629805 -0.05954314 0.08681732 0.16943659 0.10213321 -0.09346447 0.3507441 0.5081668 -0.28533614 -0.06698308 -0.1080524 -0.5813883 -0.054608896 0.18860403 -0.4207684 0.33163306 0.04289349 0.19360298 -0.42618835 -0.31023297 0.09646171 -0.009598717 0.44364917 -0.048920278 0.40620947 0.1602271 -0.0766653 0.40293556 -0.22682443 0.039597917 -0.05439476 0.08920617 0.18491705 -0.07518881 0.00834138 0.2791959 0.41280538 -0.29149318 0.4080846 0.06232896 0.40838403 -0.29557994 -0.31486857 0.15731148 0.39233264 -0.08731573 -0.17613234 -0.1711252 0.32426625 0.23803324
把 -0.07167576 -0.079794854 0.09339995 0.18815827 0.11163005 -0.08416461 0.39260605 0.537113 -0.29923338 -0.046574727 -0.09057361 -0.60147244 -0.03022459 0.2234667 -0.44096434 0.32498574 0.04839428 0.19946255 -0.43769568 -0.31165984 0.07585875 -0.01968124 0.42734763 -0.057549812 0.41970968 0.16743112 -0.06728082 0.43825844 -0.23149529 0.016569816 -0.06884742 0.07474084 0.18621546 -0.0588755 -0.00045546627 0.307087 0.46462774 -0.30957192 0.41940373 0.0541032 0.4511473 -0.2802367 -0.33573443 0.15065096 0.40681896 -0.086776905 -0.15393896 -0.18364796 0.31522053 0.28030032
有 -0.049097784 -0.06376955 0.105350785 0.16476019 0.1326585 -0.089063756 0.3918009 0.5406633 -0.26365358 -0.08033787 -0.07960365 -0.63293374 -0.052736692 0.1852629 -0.46421662 0.3381378 0.046131186 0.18126583 -0.4349625 -0.31289357 0.09304117 0.00017141365 0.4466681 -0.06761262 0.3817518 0.15407763 -0.06391114 0.42042053 -0.2179392 0.015268206 -0.087396726 0.07791149 0.16823444 -0.08117193 -0.022707341 0.2753122 0.45689648 -0.30446237 0.42325884 0.080327496 0.4453332 -0.2978553 -0.32272202 0.16344048 0.42093703 -0.0577576 -0.18247367 -0.18246609 0.32108662 0.26570478
: -0.055062212 -0.064357944 0.10446316 0.14833596 0.09473789 -0.095564775 0.37002596 0.5033282 -0.2596781 -0.050237373 -0.10880794 -0.5759469 -0.022899125 0.20662053 -0.40284625 0.31531125 0.019654436 0.16061024 -0.40289405 -0.2924838 0.06624367 -0.030538127 0.42583594 -0.05758474 0.36515874 0.11793846 -0.03530207 0.4008359 -0.21242358 0.03074489 -0.08008573 0.07451331 0.1665597 -0.08213887 0.0022771654 0.27040038 0.42126822 -0.2844998 0.3796369 0.04776535 0.39734253 -0.2583432 -0.28911757 0.15786394 0.38220033 -0.08682287 -0.14706579 -0.14156209 0.28409663 0.2554699
看 -0.079346396 -0.069590166 0.10473445 0.18316525 0.09412533 -0.08176071 0.33132106 0.5018156 -0.2760308 -0.039313845 -0.096894786 -0.57887167 -0.047183618 0.20263724 -0.42600882 0.2871292 0.005715088 0.187722 -0.40124157 -0.27636877 0.064866945 -0.0011011496 0.39414105 -0.05971783 0.35322478 0.1314446 -0.057532273 0.4099421 -0.20751671 0.0030050229 -0.07350454 0.06285305 0.1605263 -0.045571126 -0.019536078 0.28667507 0.42798033 -0.3072933 0.36838162 0.08488125 0.40653288 -0.2822687 -0.32653585 0.1587315 0.38846448 -0.05480838 -0.17075758 -0.18140334 0.29714674 0.20843308
没 -0.08020359 -0.09007438 0.12279272 0.18808845 0.10076635 -0.05718356 0.37596616 0.5039858 -0.25586644 -0.043115392 -0.09281805 -0.5971526 -0.04390587 0.188761 -0.4029482 0.29557618 0.013372363 0.19515145 -0.41082528 -0.2680518 0.060770553 -0.010854712 0.43270135 -0.075427994 0.39180157 0.15775049 -0.0675859 0.39367098 -0.21661505 0.008680658 -0.08503659 0.074513994 0.15289052 -0.059347086 -0.021148887 0.29510632 0.40964967 -0.3203641 0.4216082 0.078404985 0.3961231 -0.27681953 -0.33362764 0.12840404 0.37493765 -0.058537796 -0.13706532 -0.1453701 0.32072294 0.25539023
到 -0.06419289 -0.105220646 0.11546825 0.17473303 0.12136352 -0.0774297 0.35885158 0.5346985 -0.2786868 -0.06114585 -0.10464545 -0.61108655 -0.054337595 0.21835774 -0.4532766 0.3300993 0.010304023 0.1835618 -0.43495542 -0.3172829 0.0955169 0.0027726912 0.435664 -0.05054519 0.38133538 0.16107696 -0.048351098 0.39049032 -0.23369515 0.015839292 -0.06386844 0.06782007 0.16549179 -0.08887531 -0.003748936 0.29020885 0.43821505 -0.31494576 0.38833007 0.041955967 0.41143844 -0.3027296 -0.3437408 0.15993105 0.41598877 -0.06739947 -0.17571206 -0.18669511 0.32773095 0.25434965
还 -0.08544497 -0.10487015 0.10768998 0.18225037 0.1114903 -0.06337925 0.36510786 0.51098025 -0.29606572 -0.061215647 -0.09458957 -0.60152155 -0.032245476 0.2152319 -0.45096365 0.3394086 0.0029551329 0.2060701 -0.43035296 -0.28771546 0.098833025 0.0023513294 0.43949372 -0.0688376 0.39793622 0.1228964 -0.045585282 0.40283892 -0.208441 0.00820858 -0.072614126 0.06413365 0.14837784 -0.087734066 -0.025726546 0.30243295 0.43122128 -0.32555425 0.41243264 0.053707 0.4390383 -0.28802332 -0.3221514 0.16994874 0.3874094 -0.0631221 -0.17599334 -0.17854787 0.30426115 0.25723925
要 -0.056124527 -0.062064387 0.10554801 0.15350486 0.12050889 -0.08450572 0.37907204 0.51040107 -0.28302303 -0.07348493 -0.10055649 -0.59412545 -0.020503335 0.18435349 -0.4119459 0.29529107 0.03415335 0.17775944 -0.40137428 -0.30950856 0.09073159 -0.019253695 0.40464294 -0.07138743 0.3696377 0.13851473 -0.06873197 0.38342714 -0.22169408 0.02174922 -0.071579054 0.091083646 0.14020976 -0.07314393 0.005906526 0.29503834 0.39369103 -0.2948403 0.4134902 0.051970605 0.42114544 -0.2986041 -0.3035523 0.15317093 0.399754 -0.081777155 -0.17220213 -0.17367071 0.31057775 0.23914464
和 -0.046332303 -0.05713268 0.12805068 0.16375633 0.13192251 -0.08237839 0.38251793 0.5306194 -0.284666 -0.057907924 -0.10739736 -0.6143916 -0.060968686 0.20166525 -0.4260025 0.32121012 0.038068254 0.19575456 -0.4081259 -0.3177935 0.080440864 -0.024846854 0.43980375 -0.04318225 0.40559143 0.16753452 -0.047667056 0.42970747 -0.21996236 0.04788829 -0.07870794 0.11119716 0.17136459 -0.07495043 0.012011709 0.2995547 0.44626734 -0.31480828 0.43208465 0.057282113 0.43999472 -0.28187808 -0.31203538 0.13460581 0.41946763 -0.057769943 -0.17464784 -0.17883193 0.3259278 0.23396078
这 -0.041651048 -0.10126583 0.08278492 0.16990976 0.11832092 -0.08265991 0.35728115 0.5160558 -0.2776077 -0.06949536 -0.101536095 -0.5773902 -0.031069117 0.21440227 -0.40749553 0.30615363 0.028824009 0.18739924 -0.3903067 -0.2711846 0.08697113 -0.029167837 0.401981 -0.07110925 0.3834336 0.13272749 -0.07922985 0.40882167 -0.19926697 0.012379873 -0.04153909 0.07926175 0.14989865 -0.06028821 -0.005230999 0.27002734 0.4161933 -0.2892245 0.4070957 0.043381464 0.3896649 -0.2876438 -0.29590014 0.15517089 0.37048116 -0.06553386 -0.16931371 -0.16258879 0.31541628 0.22797087
上 -0.077929415 -0.095624454 0.097775675 0.17363685 0.11572001 -0.05781784 0.36523572 0.52801806 -0.26313582 -0.058926605 -0.10117066 -0.5792728 -0.022027042 0.21375884 -0.45662838 0.33944216 0.044146147 0.20548542 -0.440782 -0.28330192 0.093605526 -0.017413456 0.43871212 -0.062303655 0.41308045 0.13874073 -0.07131314 0.4273164 -0.24938977 0.00537647 -0.081554204 0.0814841 0.15419438 -0.052289043 0.009717037 0.29174992 0.4379282 -0.3099048 0.40976965 0.04977883 0.4335751 -0.3039368 -0.31828052 0.16969974 0.41026914 -0.064056516 -0.1561167 -0.17975281 0.3234409 0.24822718
吃 -0.04548303 -0.06900538 0.09954366 0.1748051 0.0805619 -0.051551174 0.37238228 0.46874127 -0.26537982 -0.06771336 -0.08437712 -0.54705906 -0.015712235 0.1873078 -0.40677607 0.30506006 0.056818746 0.1628511 -0.42766774 -0.29459715 0.063217126 0.006109074 0.3791863 -0.07070491 0.35027134 0.14674325 -0.057701614 0.36586392 -0.21328604 0.0402953 -0.07734596 0.06936803 0.14860609 -0.067722484 -0.03287008 0.2847202 0.3846636 -0.3101112 0.37744313 0.04002636 0.3922217 -0.24205865 -0.30359948 0.15712607 0.37317204 -0.0670074 -0.16699423 -0.18878536 0.30241108 0.23974808
又 -0.073747605 -0.09740757 0.07295431 0.15609552 0.10696761 -0.044221647 0.36539567 0.48580635 -0.25041252 -0.0547186 -0.083936214 -0.5708253 -0.03421588 0.18489765 -0.4188104 0.3275651 0.0286119 0.17189588 -0.42899162 -0.3016002 0.0606438 0.00061540806 0.4123459 -0.0750481 0.36161488 0.14612101 -0.035740364 0.40307322 -0.23194222 0.015861137 -0.083656915 0.0858088 0.14844067 -0.059943996 0.0014554737 0.25769666 0.40280372 -0.3175771 0.38591474 0.039358255 0.392472 -0.26058236 -0.33367 0.15637358 0.36240754 -0.08424981 -0.18944472 -0.16118537 0.3122437 0.25119078
问 -0.04792109 -0.072171785 0.09514761 0.1773557 0.10915362 -0.06849131 0.34619653 0.49722224 -0.24575217 -0.060951937 -0.08040792 -0.5657059 -0.02753926 0.20183314 -0.4094078 0.29580545 0.022735046 0.18646379 -0.41820273 -0.2925743 0.06845017 -0.004820158 0.39130384 -0.037706014 0.3679049 0.12742448 -0.044133242 0.39925987 -0.23269868 0.0151638705 -0.065294154 0.06096417 0.15897465 -0.056094244 -0.018738646 0.27281934 0.41694763 -0.27926704 0.3917672 0.06529563 0.40150166 -0.27044827 -0.32623032 0.15560204 0.36900178 -0.09124964 -0.17536086 -0.17590772 0.30024487 0.24955966
儿子 -0.04284446 -0.09402105 0.09106682 0.15119088 0.091550596 -0.05247933 0.34574556 0.46144798 -0.27195635 -0.065691665 -0.08460763 -0.5282704 -0.025584094 0.16364072 -0.4202123 0.30577216 0.019812852 0.16010539 -0.3745614 -0.28654844 0.0769158 -0.013584831 0.37557748 -0.056317903 0.36401662 0.15353191 -0.051625755 0.38344762 -0.21944971 0.023314388 -0.06782873 0.079765975 0.13916051 -0.067342825 -0.02144635 0.27951813 0.38724568 -0.29292315 0.3638864 0.06863022 0.3625003 -0.25198847 -0.29119864 0.15361968 0.3772051 -0.069299676 -0.14907616 -0.16349682 0.26542488 0.2157368
那 -0.06311185 -0.06930616 0.1214251 0.18580484 0.08949724 -0.05696702 0.34785157 0.50706756 -0.2726399 -0.042249355 -0.08044719 -0.5781725 -0.020999338 0.20124158 -0.43892795 0.30011046 0.032530222 0.1689421 -0.4234107 -0.2829552 0.07062605 -0.020690085 0.42196196 -0.05902561 0.38294983 0.15809475 -0.07032082 0.40406647 -0.2086564 0.024850389 -0.054871973 0.06953675 0.168472 -0.08232759 0.0019887215 0.25912017 0.41250467 -0.32426223 0.40264136 0.045971766 0.40094757 -0.2781462 -0.3171445 0.14383142 0.3770306 -0.08170339 -0.16252166 -0.18073946 0.28558788 0.23855413
时候 -0.046246026 -0.06573589 0.068449065 0.17544836 0.087923236 -0.10062256 0.3642406 0.49244836 -0.28794613 -0.06866198 -0.094404735 -0.550625 -0.055958804 0.20176288 -0.42945343 0.30660677 0.05986724 0.18839419 -0.43033865 -0.28556937 0.078644425 0.010761461 0.41506624 -0.06980681 0.3716407 0.13283226 -0.051438697 0.40499043 -0.22152656 0.04060874 -0.07670995 0.07084216 0.16388252 -0.06337436 -0.025280615 0.2764808 0.40858573 -0.31239682 0.3827562 0.06859475 0.43019962 -0.28978077 -0.30652288 0.13425183 0.3850271 -0.06341051 -0.17597358 -0.14837642 0.29436368 0.24447301
人 -0.06380948 -0.07323356 0.09880981 0.19107138 0.105744 -0.080258474 0.3517734 0.5031083 -0.2777875 -0.07415136 -0.10632017 -0.58986324 -0.027426522 0.1962336 -0.4033681 0.31912303 0.0064631696 0.1827279 -0.39337316 -0.278636 0.083100915 0.003808539 0.39938977 -0.03995381 0.38103327 0.15536684 -0.08169889 0.40042007 -0.20884262 0.019620009 -0.081378154 0.088182785 0.13879804 -0.08013359 0.0010519584 0.29596707 0.42270678 -0.30968633 0.37848786 0.07737829 0.4137754 -0.28633863 -0.33342883 0.13859834 0.3803316 -0.07159519 -0.1509758 -0.16735192 0.2918634 0.22415729
啊 -0.04512764 -0.09403227 0.08038796 0.176594 0.10410228 -0.04670094 0.33679467 0.4743602 -0.26203707 -0.059314847 -0.11150206 -0.56864786 -0.02449782 0.20494637 -0.39538544 0.30915272 0.0077628093 0.1678366 -0.40824842 -0.26655483 0.05525737 -0.007598713 0.40899625 -0.06384952 0.34566033 0.14566545 -0.07713007 0.38332906 -0.20931077 0.04079217 -0.07526232 0.07970914 0.17479803 -0.07535042 -0.0147842495 0.27949134 0.41131207 -0.28827482 0.4023641 0.05820096 0.39072782 -0.27081802 -0.32575995 0.15068732 0.37846932 -0.086274445 -0.15108916 -0.16145842 0.2843426 0.25117996
一 -0.07042953 -0.09379837 0.11646861 0.15777348 0.087707244 -0.07582442 0.35120925 0.5180725 -0.28016743 -0.066368684 -0.11178407 -0.5999485 -0.04084027 0.20445666 -0.42181733 0.3282174 0.045732126 0.16665994 -0.41191563 -0.29753423 0.093796216 -0.0026096776 0.43243045 -0.08248846 0.36713043 0.16701041 -0.07313115 0.41211674 -0.21972916 0.022193456 -0.04614993 0.081315234 0.13833702 -0.079537325 -0.00965073 0.275201 0.44026044 -0.30597135 0.39574462 0.07545871 0.43483853 -0.28179353 -0.3107713 0.13039134 0.40334848 -0.09063669 -0.17126837 -0.17241171 0.31299675 0.24873453
来 -0.053728923 -0.07233369 0.10711223 0.17336568 0.08858885 -0.05221321 0.3467598 0.4926167 -0.24700232 -0.0623918 -0.09595993 -0.5425094 -0.035962876 0.20444489 -0.3954026 0.2946023 0.03103473 0.15051475 -0.37990353 -0.25444862 0.064553834 -0.006702797 0.37624183 -0.07172951 0.36538702 0.123542875 -0.04338243 0.37493694 -0.21172261 0.02665569 -0.07223856 0.06818119 0.15230535 -0.050493445 -0.010652391 0.2623817 0.37179333 -0.26260987 0.35128757 0.07098741 0.38614145 -0.27638695 -0.3097752 0.11957285 0.35427532 -0.050762102 -0.12827832 -0.15493041 0.28523466 0.24403216
想 -0.07548649 -0.07958427 0.10071611 0.14290926 0.08195837 -0.09293464 0.34780434 0.4844146 -0.26230773 -0.07169372 -0.08318918 -0.5379352 -0.03316504 0.18544495 -0.39745474 0.29875028 0.025798349 0.18579619 -0.4096827 -0.27851376 0.05085919 -0.012845469 0.37247187 -0.046445835 0.336294 0.11886168 -0.050412573 0.3547998 -0.19654001 -0.0014212442 -0.041045453 0.08709506 0.15100794 -0.049735796 0.0042357924 0.24541658 0.41519412 -0.29921904 0.38476992 0.06271119 0.362477 -0.25982505 -0.27947208 0.12341117 0.37848863 -0.08385931 -0.12926 -0.15187974 0.29909664 0.21941286
对 -0.047550716 -0.057808924 0.09884627 0.16590643 0.109480806 -0.054936506 0.3581875 0.49639827 -0.24503763 -0.041866705 -0.07055552 -0.55202585 -0.03839614 0.18637055 -0.3989807 0.29127595 0.0065738494 0.14960968 -0.3956244 -0.25692713 0.061492484 -0.027160859 0.41291356 -0.05119765 0.35874942 0.14558743 -0.048710153 0.39173707 -0.20965149 0.02564052 -0.040615004 0.08058954 0.1318071 -0.047996495 0.008753416 0.2666643 0.381111 -0.28198496 0.3927354 0.0699678 0.38396218 -0.281132 -0.29678348 0.13934103 0.383663 -0.08505612 -0.13380754 -0.17816208 0.3013849 0.20554791
媳妇 -0.033310022 -0.059193566 0.10004378 0.14914662 0.09894249 -0.07335238 0.33145985 0.4853433 -0.25553128 -0.052858874 -0.10105338 -0.5299927 -0.041827846 0.17866302 -0.42020166 0.3068882 0.052124478 0.18988767 -0.4048987 -0.2934421 0.06029396 -0.0084243845 0.37126893 -0.074498154 0.34968835 0.14198561 -0.07727045 0.37222126 -0.21316 0.033930216 -0.0560371 0.08511973 0.12744749 -0.07912201 -0.008420143 0.2779211 0.4005832 -0.2990608 0.37477598 0.0320853 0.38054988 -0.2720179 -0.28055683 0.12655112 0.3605366 -0.08226889 -0.16055945 -0.1757026 0.28726497 0.21738784
买 -0.063196585 -0.08448796 0.0750854 0.15823464 0.10505412 -0.08169595 0.33387026 0.48018506 -0.28365478 -0.056866486 -0.077313386 -0.5651258 -0.024470484 0.19435191 -0.3976961 0.31126156 0.04698973 0.15389849 -0.42748293 -0.28773123 0.060314246 -0.028094204 0.38423866 -0.066499196 0.36631885 0.13346776 -0.07762043 0.39172485 -0.2105066 0.02327356 -0.042436313 0.09445402 0.14743865 -0.047739297 -0.014575604 0.27978018 0.40951926 -0.27457306 0.37715214 0.066292174 0.37805295 -0.2775418 -0.28957123 0.13236135 0.37973967 -0.09041734 -0.17613211 -0.14301617 0.2870627 0.24012081
里 -0.07396181 -0.079882525 0.07804338 0.17543748 0.111533895 -0.062015638 0.36233586 0.4807996 -0.28337374 -0.037219416 -0.104219586 -0.5385136 -0.026185492 0.17993063 -0.42642888 0.29071268 0.040919498 0.16003482 -0.40119547 -0.2886778 0.09178852 -0.015414398 0.41656625 -0.07220179 0.33929074 0.11785286 -0.06996759 0.3872002 -0.21544722 0.03717849 -0.05513632 0.08657471 0.15414333 -0.04581089 -0.009891865 0.28729075 0.37956756 -0.28607672 0.38158384 0.057861928 0.40615615 -0.27957723 -0.3081942 0.14093572 0.37649703 -0.07023591 -0.13873523 -0.17284785 0.31036803 0.22988094
好 -0.056740496 -0.07372104 0.09590616 0.16786973 0.09188007 -0.0574679 0.34773183 0.47667152 -0.28070307 -0.07975815 -0.09080795 -0.572027 -0.037435632 0.17720191 -0.42557275 0.29712212 0.03150676 0.16779032 -0.41456333 -0.26413175 0.07017527 -0.021125153 0.39965922 -0.060400855 0.35092294 0.11597925 -0.04981335 0.3837141 -0.22146259 0.036927186 -0.057378244 0.09356431 0.1449501 -0.046281833 -0.005233035 0.2621154 0.3853247 -0.27222896 0.38733444 0.054605216 0.40790817 -0.2856952 -0.31138813 0.12861133 0.36233413 -0.082457274 -0.14111467 -0.1544308 0.30387354 0.23435837
跟 -0.048335973 -0.061309632 0.09214602 0.16807319 0.12013727 -0.0699105 0.35734153 0.4640494 -0.24833682 -0.050314967 -0.078072675 -0.56916046 -0.03867812 0.18800388 -0.4185054 0.28099006 0.04467135 0.1611719 -0.40725112 -0.26664335 0.056411535 0.0099923415 0.40348387 -0.052773222 0.35286823 0.13147864 -0.07755764 0.38477808 -0.23155206 0.017797044 -0.04498639 0.064620025 0.13142931 -0.07393082 -0.021172108 0.24801157 0.39087108 -0.2771972 0.3994946 0.04435442 0.3706247 -0.27202696 -0.31809446 0.124428794 0.36453754 -0.056012202 -0.17808649 -0.16390611 0.29775792 0.23709151
什么 -0.06351074 -0.0915023 0.09730289 0.14331175 0.10557582 -0.05876322 0.34047848 0.45678076 -0.24997906 -0.03911628 -0.10123743 -0.5426766 -0.019559171 0.17020589 -0.38929123 0.27279854 -0.00029958348 0.15770048 -0.37390235 -0.26717508 0.073373534 0.0025077234 0.39525548 -0.0677621 0.32600144 0.107995614 -0.07601763 0.34937245 -0.20614009 0.0057536107 -0.063471764 0.059973326 0.15490945 -0.057578284 0.010322345 0.23164979 0.36375153 -0.27398998 0.3789956 0.05501004 0.36255774 -0.24225014 -0.27650678 0.11156439 0.3573667 -0.05095227 -0.13241762 -0.13793473 0.25356135 0.2096866
吗 -0.03667791 -0.08510045 0.06023147 0.15404347 0.069461495 -0.04333653 0.32889664 0.42137846 -0.23280813 -0.04083563 -0.0868733 -0.5059414 -0.002213402 0.1962781 -0.3913209 0.29137704 0.034995433 0.13804978 -0.34740537 -0.26272956 0.07294935 -0.010128988 0.38988236 -0.022205038 0.3336007 0.10185584 -0.060809087 0.34335953 -0.19390652 0.0284471 -0.022076467 0.07695508 0.1602978 -0.07104617 -0.022299577 0.24475537 0.36243415 -0.26537353 0.33355755 0.0349819 0.3279208 -0.20968385 -0.26091164 0.11226715 0.3367446 -0.05413798 -0.15104847 -0.15134007 0.25592858 0.2346914
我们 -0.07955114 -0.07605157 0.0818174 0.16315082 0.11215762 -0.07934866 0.33664566 0.48272392 -0.27741212 -0.045450334 -0.08524071 -0.57691085 -0.041245386 0.18590888 -0.41994032 0.27761975 0.0063225557 0.15894485 -0.3805961 -0.25662863 0.07284937 -0.027831815 0.40862402 -0.04806394 0.3574333 0.119017914 -0.06995794 0.37488556 -0.23012784 0.030759003 -0.059362184 0.060729913 0.12866883 -0.053187825 -0.023656894 0.26023978 0.40137893 -0.2902747 0.37708843 0.04508926 0.3834186 -0.25967282 -0.31701475 0.12950672 0.36841136 -0.073419884 -0.16677499 -0.18404114 0.305517 0.24727885
今天 -0.05829706 -0.09157281 0.08238764 0.146026 0.11553986 -0.061217193 0.30968204 0.43087828 -0.27017438 -0.050415773 -0.08975797 -0.5169929 -0.024080815 0.17985578 -0.37190393 0.26400298 0.050213102 0.14325497 -0.38784212 -0.28220925 0.059876863 -0.0040151603 0.36042002 -0.054137476 0.35137016 0.1481461 -0.05517356 0.37698653 -0.20339528 0.02083336 -0.068782486 0.09269891 0.115941145 -0.06296646 0.008004535 0.24192272 0.36670426 -0.2940452 0.36355528 0.06988459 0.34488145 -0.2547947 -0.26360998 0.13426965 0.35559952 -0.05820961 -0.17466323 -0.1366893 0.27094638 0.20228459
走 -0.05516168 -0.071609125 0.07715343 0.16225365 0.08870917 -0.07628256 0.3240322 0.45714745 -0.22467767 -0.05006461 -0.08418558 -0.53007716 -0.025637178 0.18953776 -0.36836678 0.2644153 0.011132798 0.15715167 -0.3826663 -0.23482826 0.06569325 0.008278532 0.3517037 -0.06382663 0.31209087 0.10984823 -0.054912888 0.35238457 -0.18715957 0.02503468 -0.07499237 0.06342885 0.12028008 -0.051156424 -0.012512404 0.26732627 0.35218826 -0.24852242 0.3563963 0.052321598 0.3501865 -0.22917657 -0.27588263 0.14390105 0.35107672 -0.0493507 -0.12790151 -0.16215043 0.25493696 0.21077205
后 -0.059121512 -0.06722827 0.096257314 0.17350742 0.09256567 -0.06920435 0.34813502 0.46854392 -0.24940501 -0.049299475 -0.09358342 -0.56114984 -0.03153288 0.15543167 -0.39787424 0.26327628 0.026625982 0.15225974 -0.37554342 -0.2718095 0.086999215 -0.02406102 0.37524915 -0.0543878 0.34067503 0.14084214 -0.06973283 0.3655368 -0.2207973 0.00056092656 -0.04837574 0.07794132 0.15501979 -0.076910876 0.00071465934 0.24244738 0.39700398 -0.2697871 0.35907072 0.06934035 0.36676952 -0.28123537 -0.28838304 0.14373912 0.34958643 -0.08213837 -0.13228299 -0.15620054 0.28494912 0.22679037
个 -0.065425366 -0.07112395 0.09470767 0.17944723 0.09079412 -0.065021716 0.34890017 0.456836 -0.2778657 -0.03821531 -0.07413027 -0.5555665 -0.025091253 0.17775713 -0.40557507 0.28168643 0.011583547 0.17757758 -0.38541096 -0.2903371 0.06445663 -0.010576973 0.4063093 -0.06138631 0.36379585 0.14282428 -0.0667742 0.38417897 -0.20995511 0.016571485 -0.067695014 0.06455536 0.13276784 -0.0545438 -0.024623243 0.24860267 0.38626254 -0.28577057 0.38589627 0.04521635 0.38026503 -0.25536183 -0.28502962 0.13959336 0.39458865 -0.057530295 -0.1702037 -0.1608869 0.26487687 0.21428531
孩子 -0.064371966 -0.0941083 0.11095213 0.1650556 0.098820925 -0.08060304 0.31964728 0.45024323 -0.23763752 -0.06563121 -0.077165686 -0.5524082 -0.017044816 0.18416463 -0.39501107 0.27625212 0.023059694 0.16143832 -0.371312 -0.25683632 0.071293436 -0.0012567387 0.39839578 -0.06935596 0.36772376 0.13592263 -0.07248752 0.3843175 -0.21063474 0.037249763 -0.060448006 0.092752114 0.1470635 -0.07281067 -0.010950637 0.28503197 0.38594592 -0.30215096 0.3730498 0.047332857 0.38085 -0.28296745 -0.27808514 0.13953389 0.3849233 -0.051725436 -0.15851611 -0.14694518 0.28577155 0.20219447
被 -0.04246045 -0.056714784 0.11480186 0.15273815 0.08285376 -0.05895678 0.32311517 0.4928468 -0.2561617 -0.045372564 -0.0784759 -0.5489681 -0.040095408 0.18157937 -0.38080138 0.27468884 0.020980842 0.16278905 -0.38549027 -0.2564979 0.059936587 -0.0027712989 0.37992838 -0.051166438 0.3723469 0.14275502 -0.070794955 0.3654753 -0.19636798 0.042383287 -0.049383074 0.07174899 0.14282554 -0.074162565 -0.017410519 0.27547592 0.37680468 -0.30075794 0.39318183 0.071053974 0.3998321 -0.26573277 -0.31655997 0.12305462 0.37533787 -0.08494753 -0.16531911 -0.15605664 0.2813248 0.21025147
吧 -0.04709203 -0.09968116 0.07493267 0.1552331 0.0945934 -0.06589555 0.3177898 0.47113442 -0.23232478 -0.07014433 -0.06461246 -0.517081 -0.04683112 0.1761825 -0.38001952 0.30240655 0.012215206 0.14887859 -0.3693331 -0.2818241 0.05430627 -0.0114505505 0.4028412 -0.06203131 0.35154283 0.12830238 -0.053094767 0.37272906 -0.20380338 0.03905721 -0.057317685 0.056678183 0.16312502 -0.068579294 0.0027012583 0.24427384 0.3607096 -0.29326713 0.37202865 0.04921237 0.37083706 -0.27235907 -0.3044158 0.11961383 0.3755459 -0.08074862 -0.1325813 -0.15536278 0.27523014 0.23106645
没有 -0.07125981 -0.092362694 0.0952164 0.17412631 0.121130295 -0.07475777 0.34116447 0.4856954 -0.2639796 -0.039366335 -0.10038192 -0.5406357 -0.023068948 0.18896177 -0.4035747 0.29340842 0.032647897 0.18293306 -0.408492 -0.25796476 0.07915977 -0.012998085 0.41046774 -0.06815514 0.3462979 0.111953154 -0.068608224 0.36853224 -0.21600224 0.0079243 -0.0455005 0.058597125 0.13333298 -0.045196842 0.013026025 0.26927066 0.38714665 -0.27911782 0.37307653 0.0712863 0.36317232 -0.26058626 -0.29272068 0.13658778 0.3688615 -0.059831962 -0.12414709 -0.15143414 0.30221507 0.214517
小 -0.0491306 -0.08882745 0.0845319 0.16801152 0.0959089 -0.08232071 0.35815853 0.5082228 -0.28480166 -0.0795242 -0.09553435 -0.5510325 -0.061791655 0.20495276 -0.41429004 0.30184925 0.022749549 0.1611435 -0.3970776 -0.26706186 0.04910227 -0.011540044 0.40930727 -0.05172251 0.3797006 0.1379316 -0.0437116 0.3673496 -0.23101251 0.045843095 -0.047258206 0.061291587 0.13680571 -0.07918395 -0.013229355 0.2876726 0.3730996 -0.2904108 0.40355593 0.044180688 0.3749202 -0.27907503 -0.3133854 0.15287788 0.40775326 -0.060978536 -0.16486378 -0.16197652 0.28026974 0.2288323
跑 -0.06481623 -0.053570047 0.07949703 0.13995999 0.10292886 -0.059607655 0.3070436 0.44468147 -0.2562897 -0.05810723 -0.10406323 -0.5420371 -0.04457079 0.18820255 -0.37990195 0.2784577 0.01715131 0.15287006 -0.3668753 -0.2540398 0.073532686 -0.011292293 0.35748807 -0.05368549 0.35856712 0.12222178 -0.0723225 0.34644717 -0.18463293 0.02117997 -0.034088816 0.054012198 0.15136139 -0.076437645 0.016941352 0.26380494 0.3709983 -0.2857433 0.38461792 0.06061492 0.35345593 -0.2716038 -0.2729822 0.12541208 0.33807498 -0.05732767 -0.14805588 -0.17055401 0.29693475 0.21446934
让 -0.060554776 -0.073488876 0.07888169 0.1346232 0.08014219 -0.076938845 0.2948836 0.4610892 -0.22624895 -0.06341161 -0.07833373 -0.5298336 -0.02400077 0.18322966 -0.3636005 0.25130674 0.008325945 0.16002052 -0.36422226 -0.23827007 0.07844483 0.00031991303 0.35228926 -0.04150794 0.31738 0.111274034 -0.04581556 0.31900918 -0.19611673 0.019615436 -0.072365366 0.066122815 0.14498033 -0.06920224 -0.015896458 0.25949788 0.34796295 -0.27814785 0.3510877 0.045079324 0.36592293 -0.24160632 -0.26194802 0.10926868 0.3511665 -0.05066098 -0.13317114 -0.1503408 0.2651472 0.20763172
然后 -0.07884353 -0.088988386 0.092926905 0.15329665 0.1169072 -0.0672329 0.3440098 0.47351658 -0.2434753 -0.07715086 -0.082791016 -0.54877657 -0.034130294 0.17734434 -0.40716726 0.30239066 0.0109960325 0.16670857 -0.39700907 -0.2522544 0.08387203 -0.012721733 0.39962953 -0.057889864 0.36373222 0.1556816 -0.066123135 0.35743785 -0.2287419 0.043893687 -0.059285577 0.07609981 0.13482001 -0.042818364 0.012512985 0.27388385 0.38083038 -0.2723621 0.37926394 0.062189892 0.37490672 -0.27023897 -0.2860046 0.13276057 0.36082014 -0.04473145 -0.1655111 -0.16225804 0.2748485 0.23480096
还是 -0.041961737 -0.09198964 0.10528038 0.15855785 0.07867209 -0.06971496 0.3293905 0.45830938 -0.25902775 -0.06896001 -0.0764874 -0.5231915 -0.036417767 0.18411258 -0.39439958 0.2875152 0.00083571044 0.17057721 -0.37902817 -0.25197822 0.078852475 -0.0025507691 0.39976323 -0.072112404 0.34300753 0.122367784 -0.04699369 0.37972137 -0.2189265 0.025277836 -0.04731608 0.07833771 0.14633466 -0.07214515 0.015551484 0.24623369 0.36847425 -0.29384524 0.35726866 0.04431167 0.3567184 -0.25566062 -0.30552462 0.13489003 0.37823248 -0.058168273 -0.14471793 -0.16054477 0.3006481 0.22376376
知道 -0.048405085 -0.048017878 0.064126305 0.12497944 0.11094765 -0.059053034 0.30905977 0.45299962 -0.24506202 -0.065434806 -0.09884624 -0.49868327 -0.03541256 0.15170841 -0.3810928 0.28328446 0.015058784 0.14106433 -0.36384177 -0.25061163 0.06011836 -0.012212367 0.37672266 -0.049625527 0.32008475 0.13264436 -0.043505404 0.32322463 -0.20975292 0.03268613 -0.075884975 0.0710997 0.11977861 -0.037444945 -0.01079003 0.22989929 0.35949895 -0.26526543 0.36747706 0.067829184 0.35073727 -0.23181833 -0.26587474 0.12824991 0.32953802 -0.06380711 -0.13138689 -0.12552248 0.25718874 0.18992408
找 -0.046968546 -0.047826413 0.07570289 0.15402193 0.0850574 -0.058162957 0.34922162 0.46024036 -0.24267024 -0.03729151 -0.0765948 -0.5522789 -0.029365528 0.16797324 -0.3904773 0.29138306 0.01681346 0.18331523 -0.380993 -0.25863937 0.06113582 -0.027306546 0.35895175 -0.045426566 0.32602313 0.14036576 -0.05352748 0.33903402 -0.21310547 0.011187034 -0.07445156 0.07324379 0.15837778 -0.071550705 -0.012130564 0.27902403 0.38544974 -0.25539 0.3451803 0.058815494 0.35459635 -0.24171808 -0.27319285 0.12848026 0.37668756 -0.0826285 -0.13611478 -0.14294349 0.29167324 0.22980408
自己 -0.067444295 -0.06610011 0.08062688 0.14740627 0.10535655 -0.088633545 0.33506286 0.47560546 -0.24163114 -0.06630097 -0.09264836 -0.5550736 -0.04700054 0.18099065 -0.3857918 0.27546123 0.016838506 0.18192916 -0.39062947 -0.2780762 0.08285605 -0.0072061615 0.39286384 -0.037700105 0.3634713 0.13794185 -0.054218058 0.3589515 -0.19251727 0.032669786 -0.07246381 0.060092263 0.14303465 -0.07899303 0.0017154549 0.24457051 0.37841853 -0.27687776 0.3823094 0.05761914 0.35976702 -0.2517321 -0.28773722 0.1468385 0.38590392 -0.060219843 -0.13000637 -0.13806348 0.2816117 0.22485161
时 -0.05077694 -0.0843041 0.09910007 0.1372962 0.08726008 -0.06647965 0.33441308 0.4454277 -0.24854784 -0.058766935 -0.08696804 -0.5168814 -0.045678824 0.15679222 -0.37279636 0.27880386 0.022478234 0.17228915 -0.36163494 -0.25415474 0.046500906 0.002366778 0.38142592 -0.067666754 0.33450356 0.14980246 -0.072808206 0.33263138 -0.21942492 0.030004099 -0.059586123 0.074735776 0.14774588 -0.07335336 -0.022730036 0.25600815 0.33306363 -0.28756607 0.33677012 0.043195568 0.35522488 -0.24886245 -0.2804283 0.15046036 0.3691125 -0.07203422 -0.12149029 -0.17049234 0.2646069 0.21221893
会 -0.05622481 -0.07744499 0.08474413 0.14653139 0.07288126 -0.0731416 0.29591918 0.44264334 -0.24084382 -0.06632811 -0.069598824 -0.50658506 -0.02820796 0.17446886 -0.37569138 0.2828444 0.0028151937 0.14430057 -0.37170172 -0.24386355 0.044512082 0.009704214 0.37243247 -0.06943724 0.33552653 0.13847344 -0.07123329 0.34254956 -0.2132817 0.044121712 -0.04473253 0.06778993 0.11265452 -0.058464326 -0.0013672078 0.24773526 0.36689985 -0.27322304 0.32937488 0.025085015 0.3478889 -0.23929986 -0.27223593 0.12449356 0.36183608 -0.05884638 -0.12217207 -0.13699505 0.2463479 0.20270504
怎么 -0.077743 -0.0848885 0.07972086 0.15893453 0.08818114 -0.041028965 0.30750453 0.427225 -0.2324409 -0.04595165 -0.082691 -0.51338375 -0.045953054 0.17812599 -0.38064286 0.25074565 -0.0021400603 0.1682832 -0.3502637 -0.23324096 0.0805445 -0.023333026 0.3748273 -0.04422047 0.33688936 0.116818905 -0.036010984 0.33115423 -0.18049388 0.03873766 -0.053038623 0.07839845 0.14672093 -0.052091256 0.012175187 0.24967498 0.35135186 -0.24664639 0.3610099 0.039388683 0.356498 -0.24167891 -0.2663431 0.11864365 0.33111808 -0.06480446 -0.12548503 -0.16043764 0.2778761 0.20718339
回家 -0.034978997 -0.055187467 0.09535332 0.12523395 0.078571655 -0.051494487 0.28860137 0.41901928 -0.24240533 -0.04774502 -0.07764006 -0.47621605 -0.029661868 0.14659505 -0.35735136 0.23138694 0.026843691 0.16156831 -0.3500538 -0.21248506 0.06459454 -0.015540997 0.33446553 -0.04412534 0.29005426 0.13006137 -0.04293901 0.3307956 -0.17916965 0.030417634 -0.05044935 0.054629836 0.13811824 -0.07071301 -0.0058862763 0.22375089 0.34108704 -0.26406416 0.33791298 0.046803858 0.3247883 -0.2486872 -0.27197507 0.12669998 0.30625322 -0.042506956 -0.14016943 -0.15645595 0.2403372 0.20962183
做 -0.05922108 -0.054301865 0.06800669 0.1289218 0.0837098 -0.063077666 0.29776168 0.42393333 -0.25656348 -0.052546855 -0.06756303 -0.53309256 -0.046976652 0.170862 -0.36010703 0.25313756 0.035053477 0.1376577 -0.35193768 -0.23158151 0.07180877 0.0049678027 0.38466695 -0.04623579 0.3141532 0.14058773 -0.0761877 0.33337197 -0.18465792 0.008320594 -0.069535136 0.06052041 0.13957702 -0.05066937 -0.0011073204 0.2569712 0.3516141 -0.25768954 0.33919695 0.04258995 0.3389556 -0.24189657 -0.2676592 0.13719197 0.3365941 -0.058986504 -0.11976142 -0.16203894 0.25734827 0.21146628
等 -0.060579557 -0.05059155 0.098735124 0.16161068 0.111991584 -0.075632446 0.2964072 0.4002472 -0.23963675 -0.07342602 -0.07400502 -0.48568192 -0.04523546 0.1757697 -0.34433612 0.25095585 0.008611981 0.13938828 -0.35111833 -0.21757743 0.062244903 -0.021855202 0.3553084 -0.048032373 0.3052073 0.13194546 -0.0652149 0.34031814 -0.19263847 0.006960719 -0.06272094 0.05167354 0.12492624 -0.06299719 0.005775472 0.24507757 0.3325859 -0.2417249 0.32765293 0.04712583 0.32619262 -0.23708051 -0.27209872 0.11564693 0.32385644 -0.053012244 -0.1489199 -0.12762386 0.24678037 0.19429666
就是 -0.0617215 -0.07762602 0.07539098 0.12381592 0.08882415 -0.078371175 0.30231515 0.4248311 -0.21627392 -0.05313187 -0.09704686 -0.49556917 -0.04974658 0.16359206 -0.36173937 0.2549714 0.0032171237 0.1416592 -0.34275672 -0.2326902 0.06968763 -0.004182061 0.37271088 -0.060123473 0.34570637 0.1409613 -0.044243388 0.362569 -0.21558394 0.024634099 -0.038687456 0.06910091 0.120038286 -0.060330346 -0.009401143 0.23667005 0.35151148 -0.24762204 0.34607056 0.056661285 0.34538493 -0.22475804 -0.28843296 0.10610496 0.3312343 -0.07740784 -0.14947021 -0.14661272 0.26538312 0.21167116
很 -0.045633208 -0.06890897 0.09342236 0.14610878 0.10668437 -0.049850866 0.30656934 0.4372109 -0.25042385 -0.061637726 -0.095884256 -0.50532705 -0.04340449 0.15779778 -0.35924858 0.26724735 0.0009805924 0.15656088 -0.34620363 -0.23646085 0.055207707 0.009505364 0.38119936 -0.05405192 0.32317793 0.10657555 -0.06520732 0.33804724 -0.18475306 0.022448303 -0.07178496 0.07893953 0.11775342 -0.041227497 0.007591928 0.22780669 0.35844034 -0.24430996 0.3336923 0.034621764 0.36800963 -0.23724435 -0.25063208 0.10554166 0.33710706 -0.04739194 -0.13883463 -0.14778982 0.24788183 0.19768248
打 -0.06564963 -0.048438188 0.075388074 0.12063339 0.10088673 -0.06414135 0.28361326 0.4055064 -0.21557699 -0.0574228 -0.07344143 -0.4762286 -0.0116573395 0.17148614 -0.3352075 0.23220943 0.022193203 0.14096484 -0.34103605 -0.24185 0.047907487 -0.0053957817 0.3191919 -0.05638679 0.3173023 0.10719058 -0.03759617 0.3140905 -0.19070345 0.012305693 -0.05200506 0.069681674 0.111524574 -0.060974523 -0.020716444 0.24047709 0.31709665 -0.23390561 0.31987917 0.027078534 0.31882885 -0.22052991 -0.24714774 0.10139955 0.29991138 -0.07013656 -0.11976315 -0.14357814 0.2419568 0.20221956
用 -0.04999421 -0.06251677 0.08097301 0.15448844 0.08360721 -0.079544894 0.33957976 0.44267213 -0.2671689 -0.045194026 -0.06844581 -0.5241316 -0.03131158 0.16463274 -0.38849264 0.25481382 0.0023469785 0.13997959 -0.38437796 -0.2364451 0.07977521 -0.011853687 0.37229675 -0.041769627 0.3337618 0.11869343 -0.05477744 0.3472965 -0.2092991 0.013536735 -0.034526475 0.08567703 0.116462 -0.06873312 -0.001338738 0.25500867 0.34275538 -0.2505168 0.3493742 0.055992886 0.3811253 -0.24770397 -0.2741962 0.12881374 0.33725196 -0.06234698 -0.1445884 -0.170935 0.28570315 0.20201126
老公 -0.040501352 -0.07375007 0.0581652 0.12129141 0.099452384 -0.06703786 0.3016707 0.40044147 -0.20480299 -0.033572122 -0.054434408 -0.45487055 -0.046623148 0.13384232 -0.35357383 0.24791206 0.029125106 0.14895695 -0.33534393 -0.22098272 0.04802068 -0.021334449 0.3484898 -0.0683042 0.30065024 0.10885899 -0.037837062 0.31033617 -0.17588656 0.008814221 -0.024721807 0.053949498 0.12820685 -0.04594723 0.018151773 0.21676481 0.31307906 -0.2610461 0.33848184 0.035074037 0.33502027 -0.22886164 -0.23877503 0.10452253 0.31976312 -0.057524428 -0.1481595 -0.11864023 0.2405344 0.20318669
过 -0.0507361 -0.058752615 0.08713278 0.15673438 0.07056786 -0.03731766 0.3127755 0.41156557 -0.22165972 -0.041480858 -0.06885086 -0.4875692 -0.02436361 0.1564419 -0.33524442 0.26786387 0.0025173547 0.14565904 -0.35707623 -0.2406498 0.03787069 -0.00019008589 0.34036595 -0.05424632 0.3175271 0.10531339 -0.052957956 0.3164217 -0.19576886 0.0054804077 -0.06392507 0.08211417 0.10783547 -0.042983636 -0.0151199 0.22911339 0.33555377 -0.26659313 0.3186581 0.02785073 0.31210878 -0.23854071 -0.26654255 0.123941556 0.32045317 -0.0731786 -0.13998334 -0.14759229 0.23412931 0.18470466
能 -0.06626126 -0.08992819 0.0728835 0.13893206 0.10089895 -0.075408764 0.32007846 0.47538394 -0.23912475 -0.06562004 -0.0706745 -0.5556751 -0.034256104 0.19156276 -0.38660654 0.3029239 0.014444881 0.16930254 -0.36316478 -0.27738774 0.051105257 -0.022384971 0.3849635 -0.07032283 0.34062332 0.115245126 -0.06103155 0.3532689 -0.19316618 0.007868754 -0.060887083 0.083327 0.15653738 -0.06299507 -0.0019177333 0.24639212 0.37568513 -0.29431182 0.35483402 0.04778188 0.37163356 -0.24179113 -0.3113569 0.13970022 0.3590472 -0.07426919 -0.14061274 -0.14125262 0.2634096 0.22191876
拿 -0.049083587 -0.06711 0.090953425 0.1683009 0.11024144 -0.059503563 0.33608827 0.4320044 -0.23489441 -0.046282362 -0.09575663 -0.5308664 -0.02369307 0.18251829 -0.39514595 0.27409062 0.016871164 0.15914772 -0.35539067 -0.2636508 0.08048719 -0.030369923 0.38559097 -0.035856966 0.3209832 0.11314203 -0.050895352 0.32503256 -0.21639238 0.020720446 -0.06551568 0.085669264 0.1465576 -0.055649415 0.013894835 0.27609846 0.3662214 -0.25988317 0.36888582 0.0594503 0.36817127 -0.23592113 -0.29647842 0.15348329 0.37255907 -0.040606633 -0.15865625 -0.15549542 0.26923677 0.22117423
小叔 -0.082415126 -0.08941782 0.115676716 0.20052879 0.1066742 -0.077433944 0.40060866 0.53336406 -0.29077235 -0.08260524 -0.09494024 -0.60548097 -0.033128336 0.18537432 -0.46801975 0.3340393 0.033123057 0.18221961 -0.43591356 -0.30459538 0.056555133 0.012847278 0.43100277 -0.07394912 0.4202546 0.15474828 -0.078777865 0.41855022 -0.25132933 0.009906262 -0.085090704 0.097098865 0.14231965 -0.061059263 -0.0194684 0.30517474 0.42583644 -0.3381414 0.43642104 0.042254813 0.43978462 -0.30559126 -0.35323453 0.13865258 0.4388718 -0.08165033 -0.16745463 -0.2037236 0.32772887 0.2522123
老婆 -0.06285826 -0.07618133 0.06815726 0.13860178 0.08505205 -0.06451747 0.3010687 0.41343606 -0.22558434 -0.056477185 -0.06386933 -0.4929876 -0.01811714 0.15401888 -0.38017958 0.26632857 0.004158772 0.16423501 -0.33415985 -0.24388944 0.07532257 0.0077298107 0.3692286 -0.040811338 0.33690518 0.1285802 -0.073473595 0.3201099 -0.19891894 0.019040722 -0.030309176 0.05431333 0.11864476 -0.034626376 -0.004122185 0.22394238 0.345738 -0.27670744 0.33500713 0.03218853 0.347108 -0.22736329 -0.26043525 0.14358146 0.35646445 -0.049257368 -0.15220173 -0.13087706 0.24119101 0.19384123
呢 -0.03754504 -0.052009493 0.06739645 0.12446048 0.10237433 -0.06563974 0.2928752 0.43453813 -0.21850121 -0.04259466 -0.08249905 -0.4743913 -0.012171083 0.17554636 -0.33481613 0.24558842 0.013342685 0.13900329 -0.33005482 -0.21466362 0.065261215 -0.0021740454 0.37130663 -0.036626253 0.31072673 0.10345303 -0.062084466 0.34397155 -0.19873726 0.026607815 -0.04015185 0.05009248 0.1436095 -0.05197622 0.0028330786 0.25502256 0.3396887 -0.25165084 0.31806183 0.06060718 0.31711486 -0.21187492 -0.2507972 0.124687046 0.31144142 -0.040686693 -0.13186522 -0.12699662 0.24593191 0.1944017
钱 -0.052814476 -0.07965323 0.07022982 0.11914048 0.099602036 -0.06171509 0.29929328 0.43212503 -0.23254022 -0.06718556 -0.07078439 -0.49908 -0.028325517 0.18000683 -0.35352543 0.2670335 0.025439598 0.1396563 -0.35468143 -0.22339158 0.06594157 -0.012320841 0.35673428 -0.057173382 0.31854957 0.11172212 -0.046003677 0.31861362 -0.18952803 0.029854594 -0.066554084 0.060876355 0.11080974 -0.05268481 0.0031563037 0.24073958 0.34202918 -0.25330177 0.34128994 0.042148802 0.34857297 -0.23748536 -0.27296987 0.11070319 0.31096277 -0.076195 -0.13052268 -0.13076487 0.23884112 0.18150991
现在 -0.06795228 -0.059399206 0.06600674 0.15489508 0.10204241 -0.047131132 0.2878746 0.43060768 -0.249045 -0.031708743 -0.0874058 -0.50056964 -0.025321977 0.15921237 -0.3454721 0.24997725 0.029143883 0.1318537 -0.34008905 -0.244254 0.04697707 -0.0057819495 0.35192788 -0.0552123 0.31197983 0.10694432 -0.071328424 0.31521022 -0.21004501 0.011853575 -0.03478041 0.0630271 0.108930446 -0.06735186 0.0022865732 0.23427927 0.33679235 -0.2663965 0.35433704 0.028148057 0.3272711 -0.22172326 -0.28561258 0.13285014 0.33677724 -0.03780124 -0.12845555 -0.14014187 0.26190698 0.20670986
大 -0.052221447 -0.078443006 0.09260921 0.16047686 0.111049734 -0.063444816 0.31591573 0.45925865 -0.2618316 -0.053234372 -0.09550359 -0.50902146 -0.056487173 0.17734571 -0.35978547 0.26670846 -0.00042440722 0.14092076 -0.35941428 -0.26088694 0.073898956 -0.008477461 0.39064002 -0.053264957 0.31604615 0.12051532 -0.055456385 0.3326704 -0.18788494 0.012858333 -0.064881966 0.07349441 0.121364355 -0.07238601 -0.013417538 0.24582952 0.35885257 -0.26439118 0.370687 0.05738321 0.37313333 -0.24856688 -0.29234165 0.15040362 0.35018775 -0.04879881 -0.14253312 -0.13697447 0.27682042 0.19431175
看到 -0.05748585 -0.06955423 0.087995484 0.1258052 0.0991854 -0.052718632 0.30814913 0.42780444 -0.25426292 -0.040690597 -0.0972969 -0.51866895 -0.026408069 0.1471431 -0.370166 0.2584536 0.013604455 0.13846706 -0.345262 -0.24126828 0.065810695 -0.0131746 0.37472013 -0.07088994 0.3305121 0.11846471 -0.054639865 0.320779 -0.20022257 0.010583836 -0.06263663 0.08977746 0.13136913 -0.05400851 -0.01582852 0.25787592 0.32849044 -0.26962233 0.33325398 0.030195741 0.35492748 -0.24907663 -0.26842564 0.138326 0.32738444 -0.06171697 -0.14422676 -0.16486183 0.23760568 0.20749322
家里 -0.04408836 -0.066402085 0.07519477 0.15433778 0.09683905 -0.08269107 0.3252055 0.4507443 -0.25495508 -0.053985227 -0.06979933 -0.51442254 -0.038290102 0.15446861 -0.3535389 0.276094 0.021118442 0.14290798 -0.36031407 -0.25371704 0.037614852 0.008929204 0.36171943 -0.055725403 0.33592352 0.10963205 -0.04544275 0.31895626 -0.20984723 0.03432509 -0.058310643 0.059994604 0.11466311 -0.064144716 -0.0082278475 0.2377868 0.3654413 -0.2456281 0.34819627 0.044837095 0.33879358 -0.2238041 -0.28237554 0.14293468 0.364357 -0.045540843 -0.13995777 -0.13579609 0.27403614 0.20108962
啥 -0.053138662 -0.058027353 0.09288184 0.14172886 0.093460806 -0.07217593 0.2907259 0.421753 -0.24633254 -0.05289081 -0.08987356 -0.5054467 -0.00974691 0.18640816 -0.34750468 0.26950642 0.006195108 0.15218444 -0.3582219 -0.26340726 0.074591376 -0.029415775 0.37359324 -0.059721213 0.30765957 0.12098717 -0.072568364 0.34973472 -0.20787062 0.005075233 -0.038334053 0.07508674 0.14054057 -0.05016614 -0.0102600865 0.23624206 0.35150245 -0.24396047 0.33556178 0.038569134 0.34747976 -0.22320278 -0.28546095 0.121728264 0.32958397 -0.059367847 -0.1250971 -0.12938051 0.2389527 0.22194785
发现 -0.055424273 -0.07646613 0.06468782 0.13263363 0.110911556 -0.054785743 0.29160753 0.4380799 -0.2549994 -0.07198317 -0.073553264 -0.50326526 -0.03644875 0.18112291 -0.34760436 0.2508668 0.019728871 0.15433995 -0.3463936 -0.22829963 0.042676777 -0.0147615215 0.36304253 -0.03919802 0.31709236 0.14468893 -0.069783784 0.31396458 -0.21082729 0.015544489 -0.034208674 0.057374842 0.116485134 -0.04196373 -0.018357249 0.246487 0.35357982 -0.2763838 0.34704015 0.035438776 0.36240372 -0.2497598 -0.2856283 0.15022321 0.33182833 -0.04251114 -0.15383178 -0.13406874 0.25116038 0.189359
女儿 -0.049767178 -0.06570481 0.07273175 0.12438426 0.06517561 -0.05817831 0.2597038 0.39275146 -0.19657105 -0.046030447 -0.077534914 -0.4284673 -0.049573682 0.14811544 -0.30531213 0.22540334 0.00045251322 0.11388177 -0.32101044 -0.1991725 0.058195435 -0.009074428 0.33609518 -0.060856353 0.27728748 0.1098016 -0.06559254 0.271559 -0.15473577 0.014070349 -0.061278842 0.074001834 0.09749699 -0.055772476 0.0034448523 0.20269205 0.2822093 -0.23480816 0.2823932 0.03901067 0.29092798 -0.20815822 -0.23283318 0.10686124 0.31341815 -0.040164866 -0.11872813 -0.12830096 0.22522566 0.19168599
公司 -0.030416092 -0.06916228 0.07408444 0.13173175 0.08620357 -0.072205804 0.28460848 0.38594586 -0.22179602 -0.042884633 -0.06888001 -0.47633892 -0.021907216 0.13678893 -0.31964955 0.24582903 0.023235466 0.14973797 -0.33072507 -0.22437188 0.05703735 -0.02587669 0.33115262 -0.054782446 0.27883384 0.1270589 -0.045863137 0.3066779 -0.1689446 0.019715503 -0.050327566 0.076789394 0.10041957 -0.06615869 0.012492359 0.21422687 0.33692786 -0.23557876 0.30893424 0.05743878 0.34244952 -0.240081 -0.27042216 0.10133682 0.3298997 -0.0412385 -0.1343224 -0.13493401 0.22595333 0.18340883
突然 -0.043183807 -0.08635198 0.06456926 0.14573033 0.07012807 -0.07427026 0.31610382 0.44221276 -0.25443363 -0.035504784 -0.060609516 -0.48718193 -0.04466004 0.17850786 -0.3730154 0.24950773 0.022608504 0.1346851 -0.37192813 -0.23474228 0.07243907 -0.016719492 0.34729853 -0.044980705 0.31658366 0.109170884 -0.045264307 0.3228057 -0.18749604 0.027364321 -0.031279135 0.08538627 0.13942815 -0.070188336 -0.002530169 0.24081105 0.34144297 -0.24193987 0.35293776 0.02424136 0.364347 -0.24114761 -0.26690346 0.13988756 0.32549903 -0.057788134 -0.1322964 -0.130185 0.26575124 0.20008995
他们 -0.0783189 -0.08256241 0.11023568 0.13724111 0.11968896 -0.06571107 0.33288094 0.49229744 -0.23955637 -0.039319698 -0.07163474 -0.57157034 -0.0220163 0.15959746 -0.40970293 0.26825336 0.02143641 0.17805329 -0.39712653 -0.26936048 0.05939678 -0.016991995 0.39233553 -0.047630735 0.3546936 0.13023457 -0.07368807 0.35747364 -0.21812055 0.032731116 -0.040249858 0.088308394 0.12320674 -0.07515383 -0.0210257 0.2536274 0.38583785 -0.29630125 0.38393894 0.06298991 0.38631564 -0.26070747 -0.28043768 0.15449506 0.36781004 -0.07761469 -0.1463284 -0.14311445 0.29591593 0.21672016
这个 -0.031278092 -0.06075572 0.09084239 0.12648259 0.09596238 -0.05941342 0.272174 0.42073327 -0.24369405 -0.0612578 -0.07110257 -0.4611026 -0.037786994 0.16844547 -0.3341094 0.25581303 0.0006329787 0.15321483 -0.35313815 -0.24089693 0.06569974 -0.0253465 0.35394695 -0.05828557 0.30035168 0.104225755 -0.068544716 0.3065051 -0.16768041 0.033891782 -0.069749475 0.04897405 0.12830704 -0.07014367 0.010961503 0.24279386 0.30612496 -0.22881521 0.3440337 0.037752528 0.3335194 -0.23810679 -0.24592818 0.1378925 0.33116457 -0.07401058 -0.11819645 -0.14379098 0.24101497 0.20745564
叫 -0.04378299 -0.051268082 0.06278878 0.13779625 0.07421615 -0.05292332 0.28648484 0.39199677 -0.19864549 -0.05558694 -0.06461942 -0.43667817 -0.038955525 0.15631518 -0.33995497 0.25052196 0.020007584 0.14481826 -0.3027939 -0.2031992 0.0454899 -0.020078085 0.3154614 -0.046019655 0.27570108 0.09702627 -0.06661575 0.3105739 -0.15434933 0.03170402 -0.05530663 0.060563337 0.09379775 -0.037277475 -0.0010439738 0.2341422 0.2920541 -0.24030542 0.31703728 0.042211995 0.29349324 -0.2291378 -0.23683736 0.09854843 0.31467086 -0.041464582 -0.12693577 -0.1397248 0.21232133 0.17770225
多 -0.039846264 -0.067227036 0.06381301 0.15917021 0.07100559 -0.046768617 0.3102898 0.42291406 -0.24608304 -0.037613228 -0.096295856 -0.49765527 -0.013905792 0.14349847 -0.36589363 0.24418175 0.017324822 0.14862268 -0.3515578 -0.23961882 0.07419171 0.008715135 0.37070385 -0.04739837 0.31656376 0.12198338 -0.05338548 0.33166695 -0.18294165 0.025587251 -0.057551067 0.04837109 0.14229709 -0.06736593 0.003597079 0.23601474 0.32908073 -0.2586635 0.34218323 0.031458855 0.3189273 -0.23831505 -0.25447616 0.13881823 0.3263468 -0.0436265 -0.14455472 -0.14790796 0.23234369 0.18680972
不是 -0.03548834 -0.081966005 0.06104196 0.113259085 0.09965949 -0.06546134 0.2899569 0.39188683 -0.22498539 -0.046954744 -0.077535 -0.4857147 -0.04396377 0.16057125 -0.3601458 0.24904835 0.010370334 0.15788163 -0.33324486 -0.21750784 0.03696689 -0.024292542 0.34822205 -0.046402 0.28905666 0.11245901 -0.032331686 0.2963784 -0.18961433 0.023004737 -0.050529998 0.08246878 0.11688194 -0.065333806 -0.018375134 0.20681886 0.30974612 -0.25699762 0.31390134 0.037486795 0.32474115 -0.23309293 -0.24904874 0.12937517 0.3340789 -0.06791505 -0.11777859 -0.12119309 0.2330924 0.17933847
可 -0.058401633 -0.07856455 0.094161265 0.15574408 0.10365842 -0.07460388 0.30087513 0.41824624 -0.21475199 -0.06591292 -0.07776262 -0.492358 -0.052214313 0.15766406 -0.32029623 0.25977477 0.001005652 0.14721142 -0.34191623 -0.20918687 0.036711194 0.012413941 0.32593024 -0.06470154 0.3024749 0.12142823 -0.07331137 0.31139582 -0.18536034 0.008360443 -0.03809393 0.0702029 0.13909306 -0.037220873 -0.016502867 0.23999906 0.33618337 -0.23414588 0.3377098 0.030587193 0.3376448 -0.22447512 -0.25733462 0.11020104 0.32462677 -0.045311455 -0.14767382 -0.12020234 0.2521334 0.1937489
老妈 -0.056163434 -0.060557354 0.08895091 0.13916601 0.06850176 -0.036866743 0.2777591 0.3699317 -0.19653408 -0.03590589 -0.06441542 -0.43766665 -0.048533633 0.13289914 -0.3316017 0.22432843 0.009858193 0.132921 -0.33378765 -0.21380016 0.056422 -0.00979776 0.33344212 -0.046705473 0.29659194 0.1104524 -0.034964398 0.29128143 -0.17229511 0.013838422 -0.02953469 0.06670594 0.11511206 -0.03088391 -0.017975584 0.24081191 0.30713713 -0.24175304 0.30433407 0.01841328 0.30822405 -0.21192239 -0.229628 0.13482894 0.2894818 -0.032223232 -0.14046225 -0.122604184 0.25099105 0.17904179
带 -0.06588654 -0.078912124 0.07889196 0.12831761 0.062835716 -0.050385382 0.28127736 0.39741325 -0.2061136 -0.040548537 -0.092048764 -0.44370428 -0.023522085 0.13060437 -0.32853934 0.23574476 0.012391727 0.13597457 -0.33189175 -0.21623294 0.060437158 -0.008651881 0.32422584 -0.044950712 0.2755183 0.09842955 -0.03557116 0.28052446 -0.18073595 0.015864352 -0.061838735 0.062191527 0.13077042 -0.052967384 0.014996964 0.22127683 0.29791582 -0.23736446 0.31024912 0.050850302 0.32631844 -0.20292404 -0.25646895 0.10340443 0.31687963 -0.047463056 -0.109790325 -0.12820601 0.2484888 0.16828856
挺 -0.03129631 -0.08345069 0.07836723 0.15599187 0.06922691 -0.05130234 0.28136927 0.40465266 -0.22620454 -0.046079565 -0.08403828 -0.47072992 -0.050847806 0.15749376 -0.33110705 0.25668946 0.0021697308 0.15331204 -0.35302746 -0.23432717 0.06116423 0.009402557 0.36824992 -0.060648274 0.32723117 0.11004362 -0.04162439 0.3088219 -0.204043 0.020063018 -0.0684921 0.060003087 0.12259348 -0.057240367 -0.022853931 0.22238602 0.32048225 -0.25446916 0.344796 0.04429677 0.3608013 -0.24128321 -0.24791527 0.13861646 0.34931833 -0.056433752 -0.13241988 -0.1367576 0.23211667 0.21703601
妈 -0.049625847 -0.042378217 0.077187605 0.12651631 0.07665769 -0.07320657 0.26283967 0.37389693 -0.22098827 -0.054093096 -0.07185778 -0.44152144 -0.021228127 0.14485219 -0.29467255 0.21029985 0.0030749997 0.13621752 -0.28518054 -0.19912852 0.058576025 -0.021525057 0.32412362 -0.058118217 0.2556522 0.12656155 -0.05525872 0.26561612 -0.17409195 0.034897804 -0.05100568 0.066957206 0.10902981 -0.04092339 -0.0014128297 0.186208 0.284776 -0.20361434 0.29817975 0.022611307 0.30816203 -0.18465483 -0.21427554 0.10842014 0.27001822 -0.05809776 -0.10682654 -0.13797107 0.23864976 0.157281
听 -0.059824266 -0.06131629 0.07517045 0.09592689 0.088421516 -0.06922249 0.24496812 0.3388987 -0.18231937 -0.019761866 -0.05268376 -0.3889887 -0.018294627 0.14074408 -0.27012262 0.22133024 0.010569179 0.10027025 -0.28046042 -0.19051106 0.030458229 -0.0105096465 0.29488188 -0.05167297 0.25469732 0.1063613 -0.046580005 0.2577503 -0.14023681 0.004989672 -0.031256102 0.06943151 0.091589935 -0.05827375 -0.020689214 0.1710838 0.27221626 -0.19095892 0.2825741 0.029715551 0.2699228 -0.17723072 -0.2273178 0.08021928 0.2689845 -0.061702196 -0.108520955 -0.12037546 0.21124862 0.15141584
手机 -0.025034228 -0.058771223 0.061003886 0.11713712 0.07877977 -0.06539209 0.28428063 0.389147 -0.19906306 -0.06047793 -0.08075509 -0.43084848 -0.032861732 0.12877351 -0.29849136 0.24031194 0.009868512 0.13754235 -0.29556456 -0.20063871 0.06704224 -0.009315146 0.2979126 -0.047770217 0.25739443 0.12962589 -0.07181408 0.28427362 -0.17547733 0.023178916 -0.034478195 0.042917803 0.09941489 -0.04843421 0.006685584 0.21848845 0.28989574 -0.22733644 0.2846377 0.04671842 0.28427473 -0.20119548 -0.23943172 0.097716026 0.3104552 -0.050066054 -0.13835172 -0.1429664 0.22622885 0.16204925
出来 -0.041612595 -0.051196977 0.0814435 0.116088435 0.09530207 -0.07089283 0.2831527 0.37767845 -0.21257342 -0.038150538 -0.07691577 -0.45363653 -0.035913024 0.1309854 -0.31490955 0.21730447 0.022124866 0.112098865 -0.31733647 -0.23189701 0.03214394 -0.010658355 0.29866382 -0.056343906 0.28236943 0.1067124 -0.046572067 0.3067528 -0.18843538 0.034036182 -0.06137496 0.06960053 0.12527354 -0.03157145 -0.016970051 0.22166473 0.2858726 -0.23000284 0.29434225 0.020235289 0.31164643 -0.20195013 -0.2477024 0.098669045 0.3057346 -0.061132137 -0.13535722 -0.13577226 0.2217947 0.1963428
闺蜜 -0.05964211 -0.041644756 0.08329262 0.112187654 0.07473185 -0.06263137 0.26989147 0.36843145 -0.20815071 -0.06241507 -0.05398539 -0.44578207 -0.04766761 0.1426202 -0.3005518 0.22541977 0.016004812 0.13484535 -0.29379097 -0.18923457 0.042817418 -0.025163168 0.28790733 -0.026310652 0.27456167 0.09424809 -0.0375455 0.29821745 -0.14608094 0.0029034363 -0.05301519 0.052910935 0.09403792 -0.03693119 0.012112762 0.19490413 0.30867076 -0.23741427 0.3062102 0.027517792 0.29632843 -0.20705767 -0.22059363 0.12400532 0.28658715 -0.0598492 -0.13140154 -0.11442697 0.22767308 0.18874356
看着 -0.05993402 -0.080311984 0.09282588 0.12159727 0.08993336 -0.03942503 0.26983702 0.3957318 -0.22570099 -0.061112694 -0.08523205 -0.45813215 -0.04998023 0.1454921 -0.33187553 0.25115582 0.017636139 0.14947219 -0.31360844 -0.22774749 0.04181037 0.014254161 0.33931595 -0.06711856 0.29869053 0.1325448 -0.0323218 0.28507364 -0.1826912 0.023376858 -0.041705117 0.05850105 0.1061346 -0.036819696 0.009728193 0.22043324 0.303375 -0.246254 0.303717 0.046186194 0.31623116 -0.22286113 -0.26724684 0.11356846 0.3203278 -0.04171567 -0.114336506 -0.13836764 0.2537252 0.1899706
一起 -0.049861502 -0.052153226 0.06955563 0.1515637 0.10608012 -0.05172035 0.3017659 0.41861358 -0.23488264 -0.06909927 -0.07372676 -0.48048323 -0.049549706 0.15619771 -0.33411437 0.23341726 0.023646634 0.1627501 -0.3547794 -0.22495587 0.03715629 -0.022206713 0.3573494 -0.063565515 0.29921433 0.10606505 -0.0734569 0.30331343 -0.18327063 0.024917804 -0.06235622 0.05259629 0.112610556 -0.059321713 -0.013625528 0.22411236 0.33520886 -0.24506502 0.34260857 0.050114315 0.33081576 -0.22484973 -0.239428 0.12500933 0.33174983 -0.05115089 -0.15221624 -0.1292197 0.26079804 0.19401647
地 -0.03208178 -0.0747682 0.0858451 0.118152104 0.06660746 -0.050626893 0.290721 0.4107741 -0.23988901 -0.044300705 -0.06904715 -0.45863354 -0.03542184 0.16293103 -0.31537843 0.22203226 -0.008067468 0.15062878 -0.32354024 -0.24107163 0.042610336 -0.0060731834 0.34783262 -0.049674075 0.2902739 0.1024003 -0.07388868 0.30970567 -0.18022797 0.007801415 -0.042368032 0.041903567 0.11043437 -0.044525348 0.00065551326 0.24156 0.32765675 -0.24392048 0.32917193 0.04981489 0.33436772 -0.20255357 -0.24047782 0.12837549 0.32623914 -0.057450153 -0.13616444 -0.11564091 0.23974337 0.18191363
觉得 -0.051255777 -0.07477722 0.0982358 0.14150973 0.09342923 -0.046031844 0.30483842 0.39682072 -0.23663639 -0.05634789 -0.08432341 -0.49554724 -0.036406696 0.13639306 -0.31749067 0.23951791 0.0021090813 0.12518828 -0.33903778 -0.24617897 0.057548992 0.0025801933 0.33320478 -0.034992583 0.29558313 0.10581545 -0.062364668 0.3052524 -0.19926693 0.0032880194 -0.058588617 0.06017166 0.12841183 -0.067422494 -0.015233896 0.23362619 0.3204929 -0.23829156 0.32396826 0.04988312 0.34284067 -0.24306917 -0.24679875 0.13296196 0.31923845 -0.040312767 -0.13701186 -0.14545783 0.22769518 0.21272698
老师 -0.058087863 -0.05970941 0.066170044 0.10164279 0.089511044 -0.06290036 0.22559619 0.3530988 -0.20233314 -0.020344472 -0.068192534 -0.37953803 -0.02936332 0.117568225 -0.29777056 0.19019705 0.028374746 0.13179561 -0.27465498 -0.17811982 0.05151945 0.0023247928 0.28387427 -0.061609056 0.26597163 0.08507157 -0.05137576 0.26068595 -0.1429996 -0.0016968391 -0.03549009 0.06565631 0.080710754 -0.02522557 -0.013115811 0.20730595 0.25369814 -0.1911676 0.28933263 0.01459829 0.27416435 -0.20355798 -0.19533989 0.11903611 0.25337064 -0.043123286 -0.11239312 -0.12985475 0.2028994 0.14076477
再 -0.04621467 -0.08275671 0.09245793 0.1534452 0.08192318 -0.06320234 0.2696509 0.41777104 -0.21867302 -0.030570917 -0.0696881 -0.4833874 -0.026467592 0.17284565 -0.31791097 0.2619682 -0.005011604 0.12549232 -0.31662366 -0.24339506 0.060757596 0.0059693074 0.33392885 -0.03664342 0.28351787 0.13002001 -0.045535285 0.31882045 -0.20161451 0.043984693 -0.031391513 0.05856375 0.12826689 -0.039767865 -0.0058872853 0.24154261 0.3142242 -0.24900806 0.32686788 0.03134246 0.32576343 -0.23735794 -0.24440175 0.13939472 0.3226153 -0.04325165 -0.13421816 -0.12604335 0.2240796 0.18222587
玩 -0.024601663 -0.044487257 0.05731655 0.114508584 0.09147618 -0.051761545 0.28029957 0.35653722 -0.21006843 -0.043683805 -0.07040066 -0.42328262 -0.04336896 0.14872387 -0.3228512 0.24506322 0.02005352 0.1536226 -0.31232852 -0.19715202 0.039510116 -0.02537646 0.3045943 -0.051399376 0.29783177 0.1189185 -0.061106257 0.3018671 -0.16886978 -0.0022153107 -0.032125343 0.05877942 0.08977395 -0.026688479 0.010552613 0.22894187 0.2977678 -0.21286397 0.3076013 0.027884822 0.3193045 -0.21930742 -0.2513425 0.12878327 0.2844895 -0.030779155 -0.13524748 -0.108737156 0.2144878 0.18373583
看见 -0.02626684 -0.046543572 0.069041416 0.111216255 0.05620133 -0.043747313 0.2728812 0.35509467 -0.19003166 -0.030780083 -0.08647882 -0.41927308 -0.04329366 0.12945108 -0.30204615 0.20332897 0.0054589338 0.11071472 -0.3104761 -0.21520552 0.06937269 0.00753114 0.29894912 -0.049547717 0.2790748 0.108996 -0.06904302 0.2648544 -0.15979443 0.03686329 -0.034265332 0.07594337 0.120129324 -0.044433054 0.014611952 0.22590823 0.30744845 -0.19947855 0.2718741 0.043531597 0.27389506 -0.21856876 -0.2443584 0.11523725 0.28568152 -0.061025824 -0.10166076 -0.10611275 0.22538877 0.18713665
这么 -0.059236884 -0.077871956 0.08545277 0.12587442 0.06695916 -0.04598627 0.27445883 0.38381305 -0.21198815 -0.03169759 -0.06017856 -0.46142745 -0.013044343 0.15789835 -0.31644043 0.23885617 0.014263688 0.15058002 -0.34245276 -0.20977417 0.053561293 0.006520233 0.33214122 -0.052506052 0.27825433 0.10795231 -0.058387883 0.29249835 -0.17549747 0.037360497 -0.0370259 0.044571724 0.10074183 -0.056022458 0.004847488 0.20292771 0.32854062 -0.2336514 0.31216258 0.055804383 0.33713892 -0.21733455 -0.2389896 0.10034988 0.29227722 -0.06046002 -0.10414573 -0.1267524 0.24573638 0.17485245
一下 -0.04158403 -0.060507465 0.07857543 0.1279446 0.094376974 -0.07408605 0.2924924 0.41042072 -0.22450034 -0.05632556 -0.090637654 -0.47677565 -0.043909777 0.15603212 -0.3388365 0.23668376 -0.00647058 0.13107497 -0.32605168 -0.2371126 0.059484776 0.011105824 0.3365021 -0.044801556 0.28354245 0.114220135 -0.052675277 0.30833462 -0.15834351 0.01656058 -0.031874485 0.07346795 0.12413932 -0.036652062 -0.0129095735 0.22110339 0.33360496 -0.22292823 0.32456315 0.03254044 0.3311264 -0.2178384 -0.24863261 0.13590063 0.31867257 -0.04663587 -0.12304563 -0.14991699 0.2311108 0.19361475
谁 -0.05452691 -0.04220809 0.08232274 0.09944961 0.061185103 -0.06293191 0.2472489 0.3423967 -0.19576408 -0.042939115 -0.05494268 -0.38283008 -0.035619415 0.11550003 -0.28403836 0.19961356 0.03176621 0.12821645 -0.3008345 -0.217698 0.027501551 -0.0006803145 0.29906344 -0.038607977 0.2581127 0.1059383 -0.038444962 0.2650017 -0.17550193 0.01836105 -0.034454826 0.05076692 0.100023866 -0.050599206 0.011403866 0.18785645 0.29714566 -0.22045526 0.25640526 0.022032889 0.27179587 -0.18809828 -0.20588648 0.1045273 0.2943307 -0.044162605 -0.10187285 -0.116381906 0.20399489 0.17785287
才 -0.04554194 -0.045528628 0.061596934 0.116723135 0.0841128 -0.061782207 0.27731523 0.3940704 -0.23072931 -0.06405347 -0.05793707 -0.46852687 -0.037147786 0.14695285 -0.33392748 0.21868393 0.012549033 0.13517906 -0.308549 -0.23632716 0.042873982 -0.01112131 0.33285064 -0.060890906 0.28040668 0.099639334 -0.043562565 0.28550276 -0.18462892 0.019989738 -0.044471882 0.040398434 0.13568054 -0.055691876 -0.0029755076 0.2065971 0.2979496 -0.230757 0.32513028 0.047289774 0.3293085 -0.23421319 -0.24966541 0.11359542 0.30997288 -0.045882154 -0.12410171 -0.14963497 0.24334024 0.20295082
喜欢 -0.06014353 -0.051368717 0.063593246 0.14411452 0.08495608 -0.046967763 0.26582277 0.3575208 -0.18778485 -0.049584452 -0.054723907 -0.42828205 -0.04587182 0.1418125 -0.30675426 0.21946643 0.033532154 0.11806653 -0.3193599 -0.20126055 0.045106664 -0.021659367 0.32262978 -0.033581235 0.2651262 0.097431995 -0.06517515 0.2946481 -0.17933185 0.039376512 -0.044728376 0.06273858 0.10560482 -0.03145892 -0.004376464 0.19572169 0.28464 -0.22723061 0.3166554 0.047847524 0.2891465 -0.22144243 -0.2564699 0.118934505 0.27321514 -0.045181815 -0.11227599 -0.12685792 0.2030276 0.19135962
哭 -0.042945676 -0.0753328 0.0494125 0.13293646 0.07943595 -0.07184005 0.24556379 0.35750782 -0.20727499 -0.055741023 -0.069039255 -0.41746852 -0.02480825 0.13919252 -0.27012095 0.21241663 0.01976485 0.13467768 -0.29569116 -0.18004037 0.050515667 -0.010342985 0.2634555 -0.039964296 0.2703893 0.10196869 -0.065427974 0.2664902 -0.16679114 0.02732045 -0.057164013 0.061284576 0.09387605 -0.058657136 -0.017292047 0.20153648 0.2647939 -0.22212677 0.25863963 0.029162694 0.26464316 -0.18787013 -0.20310539 0.09733552 0.25809854 -0.042326007 -0.09223912 -0.12613577 0.19767761 0.17750277
晚上 -0.03324005 -0.076778404 0.09141775 0.110243246 0.064908706 -0.06623368 0.27900782 0.38174403 -0.20726831 -0.032535955 -0.063387506 -0.4551543 -0.045741834 0.12562811 -0.32250854 0.25100425 0.0005453586 0.14280026 -0.30631372 -0.22544058 0.037099835 -0.016075877 0.3104604 -0.06295482 0.29445162 0.099672176 -0.058708765 0.3018441 -0.17669486 0.005920686 -0.054025985 0.06927072 0.11588939 -0.05463048 -0.003541631 0.22349566 0.30522248 -0.24022505 0.31958783 0.021004431 0.32504278 -0.23607138 -0.243832 0.12960625 0.2990841 -0.037584044 -0.11102061 -0.14699313 0.23113006 0.1726818
老爸 -0.06323184 -0.062090375 0.08550381 0.1432661 0.06757088 -0.057222325 0.25318825 0.37315664 -0.20071149 -0.06503468 -0.06536846 -0.45066243 -0.030262433 0.14855127 -0.3240753 0.22634438 0.010828928 0.11326134 -0.31018865 -0.20039797 0.03278899 -0.017547537 0.30997306 -0.029754307 0.27871013 0.1290011 -0.06660087 0.30470014 -0.18023193 0.008192694 -0.060004227 0.06169499 0.105679005 -0.032561786 -0.0030255928 0.21531247 0.30733654 -0.24207407 0.29467642 0.02773773 0.28295258 -0.19993545 -0.23064934 0.105550975 0.28879154 -0.062390815 -0.12524468 -0.1233953 0.24117634 0.19080067
不能 -0.05647304 -0.052046333 0.068411134 0.11770556 0.074140005 -0.06807203 0.27903008 0.36853248 -0.22541273 -0.05573207 -0.056690685 -0.44264236 -0.019688308 0.16170217 -0.33108252 0.2212627 0.028333077 0.1418241 -0.30301645 -0.19385469 0.06756206 -0.015471929 0.31951034 -0.035687856 0.2994943 0.13018228 -0.06935312 0.28146765 -0.16004805 0.020479469 -0.04612758 0.07192189 0.12559189 -0.06226192 -0.0077868514 0.19903885 0.31880948 -0.22240995 0.3043763 0.043103985 0.3199264 -0.19442053 -0.22716543 0.12149323 0.30403256 -0.037623063 -0.11667495 -0.1255502 0.20968352 0.18805942
同事 -0.05991038 -0.04742028 0.058542874 0.11856287 0.076998636 -0.055141885 0.2430406 0.368758 -0.21788052 -0.05980505 -0.05630359 -0.4245805 -0.018365908 0.12204389 -0.30483738 0.22324988 0.032887388 0.11329691 -0.28950155 -0.23106456 0.030584699 -0.0014056361 0.30271354 -0.054516353 0.2557768 0.12034204 -0.06255577 0.2849656 -0.1614998 0.019719372 -0.044816833 0.077052094 0.08297304 -0.066391334 0.005185525 0.21942933 0.26985857 -0.24463297 0.2928041 0.015523223 0.30438474 -0.18444316 -0.24010167 0.09145318 0.31107005 -0.04709002 -0.13125876 -0.13256933 0.20185702 0.16299728
从 -0.058556497 -0.061152715 0.0802681 0.15120074 0.09656807 -0.060840756 0.26529202 0.40608728 -0.23412082 -0.030861225 -0.06686208 -0.47125554 -0.021273186 0.14421752 -0.3405543 0.24138884 0.030239707 0.14854807 -0.32136378 -0.21606167 0.04613754 0.01034699 0.31845203 -0.054929852 0.28283483 0.13577993 -0.063070066 0.29950783 -0.16763163 0.0037862754 -0.052706666 0.067871384 0.10428838 -0.034180418 0.0007427514 0.21745066 0.32649475 -0.22597295 0.3229028 0.052382063 0.3086349 -0.22934875 -0.23199354 0.13066702 0.31850243 -0.06150969 -0.115158275 -0.12765633 0.25637102 0.19147334
道 -0.023469623 -0.07053455 0.055713415 0.11573121 0.08098703 -0.052310947 0.26988158 0.3400453 -0.21633014 -0.030041153 -0.054358475 -0.42186284 -0.037688214 0.12646459 -0.30083662 0.2356587 0.016253546 0.12066495 -0.29666314 -0.20894374 0.028332368 0.0068339207 0.27847356 -0.048780322 0.24966013 0.1239589 -0.03769159 0.27498505 -0.15688795 0.012179546 -0.01691436 0.05193021 0.114422426 -0.051627632 0.016870799 0.22228038 0.29716575 -0.22075148 0.28305408 0.016347965 0.3082759 -0.21828155 -0.2364257 0.117761634 0.2774558 -0.03175582 -0.13314538 -0.10216454 0.21695134 0.15150145
过去 -0.04354706 -0.0728233 0.08985075 0.14678419 0.06436246 -0.040131573 0.28702715 0.40427172 -0.23259182 -0.060965385 -0.09194552 -0.44892538 -0.04161924 0.1582877 -0.31526715 0.2541814 0.015393315 0.1310929 -0.3160521 -0.21181993 0.033736244 -0.019835189 0.32176188 -0.036408067 0.28884104 0.0951971 -0.057940036 0.31401616 -0.1616063 0.028642721 -0.052609384 0.052247353 0.11112721 -0.062343836 -0.020962888 0.22557524 0.31462392 -0.22743203 0.32360268 0.057229836 0.29729414 -0.19923866 -0.25422987 0.11997108 0.29695708 -0.06275703 -0.12435918 -0.14695063 0.25340468 0.19742064
感觉 -0.056968097 -0.06049566 0.094681926 0.12671268 0.09282237 -0.054853387 0.29710653 0.4028787 -0.24397367 -0.036070857 -0.082324535 -0.48990762 -0.029300055 0.14221801 -0.3245598 0.23278767 0.0133647695 0.1419104 -0.3459828 -0.23336074 0.0733088 -0.003801288 0.31630164 -0.051845055 0.28274405 0.110254705 -0.046070345 0.32316455 -0.1942338 0.022733737 -0.038013227 0.047763553 0.115056485 -0.056747235 -0.023851374 0.23630188 0.34177047 -0.23838805 0.32942817 0.04313299 0.3233605 -0.24080117 -0.25740027 0.13597742 0.32417354 -0.05649806 -0.110191666 -0.13024038 0.22940663 0.20995961
于是 -0.02985136 -0.07885197 0.087055765 0.11454098 0.08121601 -0.045494158 0.2605345 0.3638497 -0.22571038 -0.06489613 -0.08567467 -0.4222082 -0.02472295 0.12555704 -0.30081573 0.24337025 0.028202496 0.15182935 -0.32802948 -0.21843646 0.054254767 -0.0044786786 0.3255199 -0.0628067 0.29013586 0.12876762 -0.070986725 0.3056014 -0.1646555 0.012887678 -0.047222003 0.041270852 0.095675915 -0.036889076 -0.0072278385 0.23702824 0.28487378 -0.24209441 0.31807542 0.055101342 0.31337196 -0.19927114 -0.22597662 0.10246559 0.3198734 -0.06415046 -0.12397389 -0.13900742 0.23993133 0.17190099
妈妈 -0.03523862 -0.055208586 0.06204383 0.09840183 0.0579849 -0.051846787 0.23449177 0.33172038 -0.18860511 -0.037939977 -0.07253314 -0.36268604 -0.028766206 0.11091598 -0.27778798 0.21502411 0.009233754 0.10387064 -0.28381956 -0.19170412 0.038570654 0.00759347 0.2594107 -0.03645568 0.23964216 0.102010846 -0.061616983 0.26871273 -0.15209982 0.027661342 -0.056069337 0.061257426 0.07985176 -0.049963247 -0.004246376 0.1790849 0.25889656 -0.19766168 0.27124912 0.029556407 0.2539774 -0.19715111 -0.19104442 0.10719623 0.27535126 -0.035032857 -0.112598255 -0.09195847 0.18208207 0.16277598
家 -0.054703455 -0.05788633 0.07940911 0.11874207 0.068457894 -0.054302216 0.2668468 0.38403866 -0.2180946 -0.035095442 -0.0793593 -0.45068422 -0.042382333 0.14237557 -0.29103974 0.24034378 0.028993314 0.14194076 -0.3087035 -0.21165226 0.06631159 0.00619283 0.3189762 -0.033667587 0.27487713 0.11391581 -0.06805962 0.2972355 -0.15045407 0.0058295853 -0.041672673 0.07481661 0.11623285 -0.033662155 0.012953313 0.2090046 0.3108002 -0.21207926 0.2951021 0.035185963 0.31623134 -0.19628347 -0.24772987 0.10644608 0.28863338 -0.04488142 -0.112486675 -0.14226326 0.22669761 0.19584027
不要 -0.040323805 -0.048946507 0.07389826 0.1376882 0.09629988 -0.043118913 0.2527877 0.36900535 -0.21599752 -0.02681826 -0.076000534 -0.4041927 -0.049509972 0.13096748 -0.28430545 0.21082032 0.009126111 0.13729732 -0.2756073 -0.20593666 0.03526355 0.013757457 0.28507912 -0.04085637 0.27686843 0.091149926 -0.060556155 0.25681594 -0.16477011 0.03179541 -0.059629794 0.049612608 0.12128755 -0.058816615 0.0059030894 0.21171165 0.27675602 -0.23106498 0.30779332 0.030937487 0.3098297 -0.20725957 -0.22231302 0.12009268 0.288446 -0.03936675 -0.12591977 -0.1064948 0.21269697 0.16265479
过年 -0.031141853 -0.03659774 0.056561124 0.1205076 0.08231691 -0.054724474 0.25234076 0.3663055 -0.1811676 -0.05701096 -0.07225938 -0.39070648 -0.030402029 0.11264211 -0.29608414 0.19862467 0.013810987 0.12449756 -0.29611418 -0.20718312 0.061704848 0.004495664 0.29943007 -0.03908633 0.27544272 0.09487613 -0.03823449 0.26535296 -0.1772856 0.001952366 -0.043008026 0.07120422 0.1056661 -0.06449803 0.00037628214 0.19269179 0.26622903 -0.19700703 0.29462203 0.034741227 0.28755265 -0.19328034 -0.24122475 0.11248817 0.2951539 -0.038198378 -0.108125865 -0.12705646 0.2149537 0.15083706
一直 -0.04038505 -0.050322264 0.07016959 0.11949039 0.08287141 -0.049116224 0.26158842 0.3862701 -0.19395272 -0.04061138 -0.07742032 -0.44447398 -0.04738054 0.13359843 -0.29459748 0.23935896 0.012165197 0.11739007 -0.29281607 -0.21292965 0.050756164 0.010055315 0.32192767 -0.0455928 0.2574396 0.11298084 -0.029980376 0.3001808 -0.16878103 0.033366036 -0.028146055 0.034605775 0.12768844 -0.046883337 -0.014114799 0.21384992 0.3153242 -0.23220958 0.3093079 0.025242219 0.2772629 -0.19150634 -0.2397922 0.11907932 0.2995264 -0.03229018 -0.09774771 -0.13881423 0.225645 0.1579533
] -0.05545944 -0.04370538 0.06947344 0.15738079 0.074755765 -0.086174496 0.3461502 0.45905548 -0.22200087 -0.043424636 -0.07875567 -0.5105779 -0.06300952 0.18866394 -0.37303868 0.27572426 -0.00017175802 0.15875521 -0.35282448 -0.2572789 0.040387593 -0.023254206 0.33821765 -0.019415647 0.304644 0.13971296 -0.10073243 0.32794607 -0.21412426 0.02998407 -0.03510919 0.078718916 0.14151694 -0.052078556 0.030553183 0.27632493 0.3560282 -0.27250072 0.3396391 0.027811427 0.36146876 -0.26851395 -0.27833018 0.115145154 0.38143402 -0.05400537 -0.13961889 -0.1590747 0.28145355 0.19973521
你们 -0.057839353 -0.039946496 0.058545645 0.10648024 0.07987586 -0.03574858 0.24569902 0.3459497 -0.17228399 -0.057029378 -0.05103405 -0.3692906 -0.03487193 0.12935892 -0.28120518 0.19406438 0.027469145 0.11446484 -0.26017368 -0.19746779 0.057156622 -0.0137684895 0.26653567 -0.03635415 0.26191992 0.083939895 -0.037293732 0.24959426 -0.16332796 0.009695414 -0.05499182 0.06166835 0.09080481 -0.0520829 -0.00010982424 0.19690661 0.28299612 -0.21959025 0.26721632 0.02849653 0.25728154 -0.18481424 -0.19171377 0.09643571 0.27764818 -0.046685662 -0.10313237 -0.09735819 0.21115412 0.15892757
几个 -0.045041684 -0.04206859 0.062122364 0.12645382 0.07365143 -0.06418787 0.2623408 0.344367 -0.18811367 -0.055414926 -0.061424244 -0.39818457 -0.017731477 0.11476196 -0.30613685 0.2250103 0.019003106 0.12488006 -0.30007064 -0.198175 0.028531726 -0.005740361 0.2791262 -0.041307334 0.26892337 0.10713541 -0.0634009 0.26863226 -0.17093909 0.010092428 -0.038376603 0.071228646 0.090776004 -0.0382355 0.012052811 0.22197825 0.29368028 -0.22549456 0.28647113 0.05433335 0.28902194 -0.19225402 -0.22291447 0.112238325 0.2846549 -0.029581273 -0.11646838 -0.13659357 0.2223546 0.15395743
衣服 -0.054085575 -0.058778938 0.075666584 0.12503411 0.082238756 -0.0754012 0.28315437 0.3866633 -0.2316337 -0.0414963 -0.07090548 -0.4536998 -0.030710334 0.12748493 -0.3078517 0.22853114 0.0076935636 0.15028192 -0.3223916 -0.21123427 0.055511832 -0.0023174733 0.34183708 -0.028673042 0.28708237 0.10928756 -0.04806477 0.28094178 -0.16081887 0.02649295 -0.03332091 0.066830024 0.11178578 -0.04948781 -0.010418681 0.24427584 0.3219578 -0.23050232 0.30893672 0.019123474 0.3320926 -0.21359928 -0.25636208 0.10097484 0.30376965 -0.050089784 -0.140427 -0.12983647 0.24313205 0.1691424
点 -0.04434611 -0.07281242 0.06367926 0.11945862 0.05864722 -0.05580653 0.24832775 0.3536382 -0.20214002 -0.038280956 -0.049838398 -0.41325033 -0.04593313 0.121101394 -0.2912213 0.23539524 0.026658911 0.12258292 -0.31017688 -0.21906705 0.029589597 0.005409787 0.30353585 -0.027504407 0.25933352 0.13037238 -0.060228195 0.3004837 -0.18075876 0.00703349 -0.029433886 0.03765226 0.08644998 -0.03829726 -0.021590054 0.22186136 0.29400885 -0.23861437 0.3045382 0.0366891 0.31593245 -0.2004429 -0.24418873 0.107127644 0.30579305 -0.06267107 -0.09898453 -0.13255762 0.2089726 0.1674482
起来 -0.038424443 -0.07601335 0.07660636 0.109086126 0.09220194 -0.059994686 0.23591208 0.36004266 -0.17917725 -0.037496585 -0.07059338 -0.40538466 -0.04952434 0.122897334 -0.30306834 0.21554738 -0.0015021579 0.10698899 -0.30173975 -0.18494858 0.04983652 0.011345813 0.29747027 -0.03372233 0.26660976 0.11376214 -0.061055988 0.26985493 -0.15969853 0.031509988 -0.053102504 0.054421265 0.107296295 -0.05525971 -0.01851509 0.21358779 0.27530357 -0.21240298 0.27233338 0.050083842 0.28692356 -0.19402513 -0.22312735 0.107886255 0.29250598 -0.066246755 -0.105156705 -0.1303422 0.23122504 0.17886543
工作 -0.06048457 -0.061334204 0.06474254 0.1476397 0.099194035 -0.05024976 0.29834127 0.3810533 -0.20825668 -0.05740693 -0.09096963 -0.46209988 -0.035650942 0.13390051 -0.3359105 0.23722157 0.012751314 0.118908614 -0.3047122 -0.21436995 0.031074926 -0.012542603 0.30761752 -0.034903597 0.28429714 0.12937352 -0.04462456 0.28752798 -0.19403806 0.008204314 -0.028888015 0.058126193 0.113298506 -0.049500898 -0.018684825 0.2326872 0.2897642 -0.21568406 0.29707482 0.05279261 0.31052056 -0.2251354 -0.24890397 0.120826446 0.31309837 -0.050088838 -0.12349265 -0.11605749 0.21853256 0.169676
朋友 -0.05996621 -0.044673543 0.06595014 0.11243774 0.08421502 -0.06750039 0.26639095 0.38268906 -0.188222 -0.050631583 -0.06295882 -0.4179048 -0.013368081 0.13073331 -0.3032021 0.21206556 0.004984635 0.12829222 -0.2925236 -0.21328679 0.05738571 -0.017811343 0.2959651 -0.063920595 0.28154826 0.11734903 -0.054950897 0.29300815 -0.16115563 -0.0010549153 -0.057047337 0.050337676 0.08832114 -0.031172529 0.009769713 0.21368332 0.284179 -0.23688993 0.30715388 0.022300078 0.288257 -0.21759714 -0.23318794 0.09234109 0.2973571 -0.06539827 -0.10158205 -0.13661438 0.2062535 0.17159095
还有 -0.063867 -0.049498312 0.0647501 0.12633066 0.09251141 -0.046566702 0.26786685 0.39367366 -0.20776625 -0.03446636 -0.05777434 -0.4590002 -0.027867565 0.12285475 -0.3172219 0.24459983 0.0055473014 0.12078431 -0.3013743 -0.19599324 0.062251043 -0.021792397 0.3313467 -0.029645484 0.2650242 0.108596966 -0.053780634 0.26784313 -0.17596254 0.04123198 -0.049263846 0.042250827 0.100253716 -0.06831148 0.0021791123 0.22843848 0.29688576 -0.23352093 0.3232622 0.014458396 0.29421747 -0.22958907 -0.21889722 0.11241939 0.28806385 -0.0674461 -0.100494064 -0.13332976 0.21183866 0.18678917
告诉 -0.059026062 -0.03536506 0.08348829 0.109823845 0.069900624 -0.04853691 0.23444378 0.3659294 -0.18923077 -0.032201953 -0.08292617 -0.41956663 -0.04134738 0.14696252 -0.2772397 0.21563761 -0.0063807378 0.13321401 -0.29028183 -0.19609606 0.03360527 -0.009181329 0.29354843 -0.02828114 0.24596508 0.10039274 -0.05105123 0.2689206 -0.1516704 0.02213018 -0.04705234 0.037339948 0.0850684 -0.042303342 -0.0022286242 0.1837318 0.29773152 -0.19957545 0.2996229 0.028436035 0.28422436 -0.17976096 -0.23683739 0.09272459 0.26479423 -0.042390652 -0.13181259 -0.11619245 0.22850195 0.17291
得 -0.06473041 -0.041655805 0.08384374 0.10608486 0.088408045 -0.031699937 0.27218005 0.35886213 -0.19060783 -0.05335609 -0.08368714 -0.42192057 -0.043419812 0.13656771 -0.31421623 0.208555 0.007714941 0.12928535 -0.29568043 -0.19144064 0.054616127 -0.024268182 0.2881618 -0.049487926 0.2631748 0.09831155 -0.033742428 0.28994486 -0.18109982 0.032487694 -0.04679461 0.04295668 0.104332544 -0.033779774 -0.01094438 0.20142537 0.28670576 -0.21214542 0.30521744 0.02175593 0.27919427 -0.20609502 -0.22696914 0.11774533 0.29550943 -0.05031035 -0.11856335 -0.116126865 0.21855353 0.1860647
、 -0.0478371 -0.044909626 0.06739182 0.1328407 0.086760186 -0.06326612 0.28705323 0.39099252 -0.2002502 -0.047728833 -0.048754152 -0.43586516 -0.036109 0.15068263 -0.3021829 0.24493279 0.012325488 0.13710643 -0.31317988 -0.22341093 0.028648103 -0.011009559 0.31178752 -0.041781433 0.2769226 0.11539269 -0.040013544 0.27524436 -0.1577904 0.03641798 -0.032693394 0.06271173 0.10762215 -0.04654905 -0.01660083 0.20186293 0.30002487 -0.22815959 0.31442463 0.025724242 0.3159111 -0.21847664 -0.22628628 0.1089299 0.29212442 -0.048709106 -0.11952341 -0.1340257 0.21787499 0.19584678
回来 -0.060962282 -0.0423465 0.059954055 0.1357204 0.07941694 -0.045419484 0.23994756 0.3428374 -0.2026364 -0.04794235 -0.051262595 -0.42204723 -0.023243196 0.13769609 -0.2737193 0.19998464 0.022868091 0.09970118 -0.2805791 -0.1753237 0.053526107 -0.017006762 0.28297645 -0.056973867 0.25401142 0.11087231 -0.06393128 0.27273425 -0.16377918 0.03126348 -0.028217377 0.057745054 0.097676724 -0.06412784 -0.013906627 0.19836982 0.25131634 -0.19132654 0.28579983 0.032624807 0.29372248 -0.20003362 -0.21262586 0.10694296 0.2878589 -0.041831724 -0.11446939 -0.123337604 0.19120646 0.17513905
准备 -0.03128363 -0.04261682 0.084057756 0.10172906 0.096590675 -0.06810005 0.26116076 0.3626981 -0.18849945 -0.06274544 -0.05995192 -0.43867293 -0.03165244 0.15030146 -0.3235714 0.24108075 -0.0032869694 0.14295354 -0.31554016 -0.22132593 0.02827213 0.008422397 0.29868764 -0.041654598 0.24988867 0.13137028 -0.043017864 0.27070618 -0.17456739 0.039156865 -0.038692486 0.037827495 0.112844735 -0.05883005 -0.00017066355 0.22150129 0.2832044 -0.22325192 0.30494946 0.023136152 0.30222812 -0.19248185 -0.24635781 0.09944455 0.30916357 -0.0460621 -0.09845924 -0.13013323 0.23593493 0.15641214
完 -0.03886979 -0.07688527 0.07851379 0.14621715 0.07498695 -0.03663399 0.25441077 0.38088703 -0.20412707 -0.05621278 -0.05459811 -0.4613577 -0.033597942 0.16594566 -0.3022386 0.23366097 0.030825494 0.112604946 -0.31703427 -0.21048604 0.045107245 0.0012139108 0.3361849 -0.054589238 0.2790818 0.12952176 -0.06412708 0.27219656 -0.1743844 0.004983273 -0.04542401 0.06277462 0.093686946 -0.05129419 -0.013330672 0.21098644 0.30506766 -0.22234893 0.30331695 0.05060776 0.3056957 -0.1960117 -0.23399775 0.1263897 0.32112104 -0.06075161 -0.11826625 -0.13840608 0.23663035 0.16930869
后来 -0.055834997 -0.048114486 0.071317226 0.13912159 0.082865894 -0.052325644 0.28356823 0.38239762 -0.20406193 -0.03048671 -0.09383644 -0.48250508 -0.030651052 0.15105645 -0.3395894 0.25874007 -0.004002292 0.13423143 -0.31239027 -0.22540444 0.042639256 0.012248562 0.34730855 -0.05767148 0.2768823 0.11531245 -0.038202383 0.29909337 -0.17158079 0.015572636 -0.03982002 0.058977507 0.12815326 -0.031482615 -0.018236717 0.23654017 0.30113205 -0.2597127 0.33518773 0.040941585 0.3329693 -0.24433166 -0.23626484 0.103115276 0.30319607 -0.050901163 -0.13341641 -0.13002893 0.22889023 0.17884791
昨天 -0.022510927 -0.057246484 0.074695624 0.10609846 0.06597405 -0.037930112 0.2511978 0.32091308 -0.20374998 -0.043482885 -0.04412674 -0.36739764 -0.04045993 0.12922381 -0.2560817 0.18397582 0.016495882 0.118620284 -0.2810108 -0.20043197 0.05200768 -0.014797188 0.26308212 -0.035270397 0.2615644 0.114365704 -0.055342652 0.24582346 -0.13434425 0.02099334 -0.046034984 0.036816817 0.081264056 -0.031353217 0.0021405204 0.17027028 0.26677576 -0.20764017 0.2620606 0.019644761 0.27260306 -0.17900795 -0.19799796 0.08882659 0.25770682 -0.041639213 -0.117239155 -0.11708167 0.2124494 0.16010365
大妈 -0.017984277 -0.030521963 0.052470017 0.08395265 0.06892895 -0.021368029 0.16022128 0.26092005 -0.14871463 -0.030837696 -0.06377947 -0.30677995 -0.027828436 0.1032448 -0.2003988 0.14889932 -0.0058729835 0.09592145 -0.1806884 -0.124778934 0.03022327 -0.021361345 0.22279035 -0.0337483 0.18383248 0.08307056 -0.015491149 0.18675946 -0.12257076 0.014211882 -0.020894522 0.03906804 0.06717148 -0.01032041 0.0047942777 0.1288341 0.21323036 -0.16453733 0.19163688 0.033465307 0.18631569 -0.124028146 -0.16633599 0.05624143 0.17541802 -0.029535865 -0.06447611 -0.06854965 0.15184075 0.12577264
下 -0.041321695 -0.06522512 0.08246626 0.09066825 0.0785321 -0.04417583 0.2201883 0.3089121 -0.15948845 -0.050764862 -0.05477057 -0.36784774 -0.025702847 0.10633654 -0.2776292 0.1724318 -0.0009362913 0.10903449 -0.2680984 -0.157102 0.045647003 -0.01965115 0.25167814 -0.05141599 0.21371645 0.094511874 -0.046075314 0.25586525 -0.13373145 0.014645869 -0.017895682 0.037001576 0.07248791 -0.037309043 -0.012179673 0.17189449 0.25248495 -0.20436971 0.24987955 0.033591058 0.25481552 -0.17753577 -0.20200613 0.113684714 0.254564 -0.04743104 -0.10878115 -0.12019428 0.18415698 0.14303964
[ -0.07395152 -0.06470794 0.066458136 0.13813257 0.083714224 -0.06853944 0.3331697 0.44812927 -0.2130398 -0.03444399 -0.07140116 -0.5011895 -0.033723522 0.1695481 -0.33397537 0.24119043 0.01233209 0.15723352 -0.32816294 -0.2548762 0.079050384 -0.00021682322 0.33381295 -0.019645384 0.2970383 0.15010731 -0.10171775 0.31503427 -0.18304862 0.020389833 -0.057872165 0.064567976 0.098182015 -0.043207116 0.029299926 0.25102797 0.35287625 -0.2752699 0.35439596 0.03605772 0.3167519 -0.23951477 -0.2874971 0.1426894 0.3348255 -0.03444528 -0.13258772 -0.12625375 0.2724427 0.23198238
说道 -0.039171986 -0.048637185 0.066240735 0.10521066 0.06350748 -0.037752777 0.25100142 0.34086388 -0.1772582 -0.030412996 -0.061137788 -0.3769199 -0.03815176 0.10973245 -0.2875195 0.20826173 -0.002385031 0.13156287 -0.27666557 -0.18764038 0.025744893 0.009571796 0.286823 -0.03688279 0.23904581 0.08918779 -0.056715842 0.2719028 -0.16743328 0.029260956 -0.030154312 0.070256986 0.09807092 -0.039249446 0.008575169 0.19470236 0.23848827 -0.20943181 0.2658713 0.032251123 0.27509674 -0.18683578 -0.20844604 0.10453655 0.2668295 -0.025350885 -0.086476915 -0.10905794 0.19879049 0.13722868
睡 -0.04080579 -0.07025735 0.08664124 0.1360313 0.10103512 -0.042403597 0.3016732 0.40398172 -0.23268242 -0.060577147 -0.09130907 -0.4633521 -0.019245977 0.1672241 -0.33401313 0.24100834 -0.002757175 0.15241995 -0.31285867 -0.2190518 0.07206391 -0.026287008 0.31463426 -0.031557653 0.30271807 0.09991763 -0.040057056 0.29631767 -0.17861028 0.02627159 -0.07086767 0.074326724 0.10253434 -0.0631837 0.010018675 0.2457123 0.33098423 -0.23387 0.3242827 0.022090208 0.31602544 -0.22658527 -0.24588668 0.13888602 0.32882056 -0.056746483 -0.13513546 -0.12022843 0.25595495 0.17892164
这样 -0.039189268 -0.042418834 0.06961551 0.12927607 0.060688205 -0.06892676 0.24358748 0.34307534 -0.21610692 -0.029604947 -0.079096645 -0.40318504 -0.026752101 0.13195036 -0.31989044 0.20707813 0.01922408 0.14451092 -0.30095702 -0.19095546 0.042108424 0.014744983 0.2987822 -0.05704678 0.27201563 0.10450476 -0.030127674 0.2591293 -0.15878072 0.026405318 -0.027325744 0.05238392 0.099184014 -0.061372604 0.007879016 0.18734792 0.30231783 -0.2006385 0.30099747 0.05260951 0.27970597 -0.18233623 -0.24178268 0.123265155 0.27628174 -0.045720454 -0.11432405 -0.120989345 0.23150477 0.17460638
因为 -0.061568107 -0.044124756 0.076527014 0.10460488 0.08703634 -0.049140036 0.25987262 0.34273714 -0.18016064 -0.029764008 -0.0730575 -0.4252657 -0.030151859 0.13490094 -0.3059118 0.19165252 0.01374654 0.12252275 -0.29503053 -0.20554118 0.062314622 0.012771339 0.2733035 -0.05878441 0.255735 0.09442361 -0.05094595 0.25538674 -0.17295699 0.008658547 -0.033756346 0.059739936 0.0849238 -0.06363851 -0.015310174 0.20098536 0.25807005 -0.20986117 0.29827824 0.01602674 0.27263215 -0.17797941 -0.20591943 0.10427408 0.2648005 -0.066037625 -0.11703698 -0.11654071 0.22457562 0.16243844
开始 -0.029856877 -0.07612713 0.085327 0.14057791 0.06843383 -0.037644774 0.2617644 0.39228442 -0.23130864 -0.047768347 -0.07737876 -0.43522575 -0.020485358 0.1252568 -0.32737058 0.22104235 -0.0022066492 0.13553473 -0.30289838 -0.22547416 0.0714383 -0.0003494409 0.30624175 -0.04978592 0.28966928 0.12591189 -0.055637863 0.3120466 -0.18320888 0.0012131254 -0.060375556 0.068736374 0.10352073 -0.06411525 -0.013612687 0.22320294 0.32445335 -0.23870894 0.3163659 0.037231207 0.32922357 -0.20651564 -0.25696367 0.09718738 0.2941678 -0.045176763 -0.10764319 -0.112402976 0.23979647 0.19989508
小时候 -0.024574047 -0.04918451 0.07048595 0.1094324 0.066910475 -0.05705202 0.20250165 0.2894993 -0.1851152 -0.019730248 -0.07295356 -0.37537318 -0.020644397 0.12741126 -0.24138674 0.17699194 0.027627807 0.1106904 -0.25609234 -0.18664968 0.035087112 -0.020592734 0.25897428 -0.023343414 0.21677762 0.10063705 -0.03086136 0.25005668 -0.15718898 0.024751872 -0.039186794 0.057957925 0.081960484 -0.055452757 8.131324e-05 0.15113036 0.25615498 -0.20748031 0.24193099 0.04091656 0.2365022 -0.18868561 -0.19979343 0.0742667 0.26108807 -0.054941 -0.111008145 -0.1243842 0.20308737 0.13621494
过来 -0.056632563 -0.04993681 0.070067145 0.13587928 0.07058814 -0.06872918 0.24598844 0.34320238 -0.17977409 -0.024737777 -0.06192651 -0.43618995 -0.034520365 0.14532053 -0.31064844 0.23377094 0.026327478 0.12144497 -0.30811742 -0.18188347 0.04658664 -0.015145513 0.30590785 -0.057168316 0.24671248 0.12040297 -0.048488427 0.28096977 -0.14252086 0.009908868 -0.052656732 0.036048234 0.12177527 -0.054612156 0.009806881 0.20916663 0.2689729 -0.21559131 0.30784285 0.023655757 0.28912255 -0.20185465 -0.21056974 0.10183588 0.27662286 -0.06644485 -0.118287094 -0.11355039 0.21282002 0.17288847
大哥 -0.026358712 -0.0438179 0.08643884 0.13770716 0.085153006 -0.060055304 0.26767465 0.38364416 -0.22077349 -0.03910564 -0.077151574 -0.41648173 -0.018776754 0.13056175 -0.3087207 0.21948169 -0.0031619337 0.13239948 -0.3064221 -0.22469215 0.05191206 -0.0056136562 0.29113168 -0.05005882 0.27309394 0.1199291 -0.040820006 0.29897934 -0.16382377 0.0013769589 -0.042702567 0.08034753 0.1287582 -0.035598516 0.0022949772 0.22274496 0.28921083 -0.23788087 0.29682574 0.02756301 0.31404543 -0.19564705 -0.23488149 0.09174097 0.2861554 -0.063703634 -0.13330886 -0.12227199 0.22958064 0.16649039
同学 -0.05783698 -0.05459684 0.070766374 0.11862417 0.09160858 -0.053423252 0.23136005 0.36026528 -0.17813356 -0.05596477 -0.049886324 -0.39591926 -0.034846853 0.12796576 -0.2779891 0.22633302 0.031581864 0.10946706 -0.28304172 -0.20688705 0.02820255 -0.0147377 0.28414544 -0.054983124 0.26267505 0.09396597 -0.046655677 0.26257876 -0.15721713 0.032768145 -0.018454121 0.06322375 0.09075324 -0.033117533 0.009052717 0.1998844 0.29564762 -0.22320828 0.2895141 0.019401884 0.2905553 -0.17816676 -0.23556177 0.107772 0.2896743 -0.05648474 -0.12596937 -0.1257136 0.21498637 0.1688359
